0.0853755 -0.306024 0.447935 -0.274316 -0.0627613 -0.322718 0.305353 0.45999 -0.370815 0.473663 -0.370418 0.356929 0.300023 0.464292 0.385161 -0.300684 0.0724357 -0.132923 -0.341426 -0.494598 -0.441649 0.347194 0.45349 0.26867 0.264092 -0.0747856 -0.410855 0.387265 -0.0726798 0.0914487 -0.0161596 0.438902 0.317286 -0.468932 0.104121 -0.0420174 -0.471433 0.366787 -0.138598 -0.129427 0.301123 0.32602 -0.261913 0.245343 0.395274 -0.263967 0.418859 -0.49109 -0.443921 -0.241073 -0.277937 -0.197952 0.0981628 -0.23336 0.0942259 -0.397824 -0.363094 0.264733 0.462188 0.296624 0.00452288 0.272238 -0.280014 -0.152147 -0.122053 -0.437598 -0.368642 0.211468 0.152949 -0.324635 0.436021 -0.33046 -0.407476 0.0881018 -0.10086 -0.317037 -0.241364 0.486461 0.195783 -0.43058 -0.147985 -0.480359 0.258324 0.439848 0.335292 -0.06798 -0.0164634 -0.268926 0.00067253 -0.498906 0.0377961 -0.0794058 0.468294 -0.31457 -0.454712 -0.419257 -0.352744 0.398461 0.470288 0.458967 0.187902 -0.253553 -0.160926 -0.38918 0.401595 0.235829 -0.114868 -0.432579 -0.0838407 0.359437 0.0138367 0.226615 0.16979 -0.22811 -0.34942 -0.480436 0.217467 0.251105 0.148565 -0.180461 0.0947685 -0.37427 -0.4581 -0.179937 -0.0407232 -0.231601 0.473041 -0.106226 0.197498 -0.291128 -0.0373955 -0.0788237 0.127469 0.2306 0.309263 0.272585 0.331325 0.306534 0.392666 0.0945616 -0.434111 -0.457488 -0.415258 -0.389975 0.374627 0.167633 0.182891 0.409448 -0.180419 -0.376842 -0.00840477 -0.180778 0.360229 -0.29241 0.105055 -0.243946 0.194522 0.477505 -0.0480825 -0.226573 -0.381158 0.0401098 0.274989 0.117401 -0.302253 0.366033 0.482698 -0.0171362 -0.401761 -0.156087 0.0145678 -0.270248 -0.449374 -0.259401 0.00420089 -0.401919 -0.0620463 0.325603 -0.00200226 -0.21588 0.476984 -0.394289 0.375788 0.405928 -0.18589 -0.143177 -0.108102 -0.0715227 0.0686225 0.144418 -0.332849 0.0446462 -0.108978 0.243864 -0.353463 -0.140068 -0.300714 -0.133705 0.406352 -0.128946 0.0984377 0.426147 0.22519 0.17542 -0.198861 0.12702 -0.235155 -0.0676043 0.182329 0.153563 0.336807 -0.389982 -0.410831 0.212966 -0.336695 0.206853 0.131602 -0.0318178 -0.348411 -0.278965 -0.195592 -0.00772587 -0.034658 0.259429 0.425047 -0.031424 0.101836 0.246509 0.148392 -0.00120963 -0.498566 -0.211378 0.305379 -0.387313 -0.563431 -0.436304 -0.3022 -0.252508 -0.0134287 0.150505 -0.142182 0.250161 0.108299 0.0365965 -0.435726 -0.220959 0.33196 -0.494137 -0.143266 0.418857 0.385601 -0.273833 0.495741 0.43074 0.439816 -0.186059 0.428719 -0.00773198 -0.415368 -0.399205 0.128626 -0.486073 -0.361204 -0.469978 -0.346343 0.325422 0.168345 0.24189 0.344792 -0.463457 -0.336403 0.230194 0.297793 0.345809 0.279863 -0.237084 0.413721 -0.393923 -0.476355 0.260252 -0.168838 0.223845 -0.18252 -0.0488734 -0.400094 -0.433048 0.115162 -0.185111 -0.33232 0.064711 -0.047529 -0.349534 0.170001 0.0159888 0.291784 0.561077 -0.287698 -0.241622 0.151131 -0.509337 0.179611 -0.443921 -0.127903 -0.421096 -0.0571736 0.399088 -0.380642 0.363308 -0.201627 0.140717 -0.327657 0.388331 -0.168984 -0.372699 -0.378281 -0.391203 -0.375959 -0.0398594 0.401987 0.225351 -0.226762 0.266892 0.230869 0.356583 0.426724 -0.167397 -0.404307 -0.138888 0.101313 0.0194352 0.0179208 -0.427178 0.046337 0.171226 -0.42698 -0.233511 0.39111 0.132948 -0.148677 -0.0160312 -0.151537 -0.43379 -0.335771 -0.480666 0.162626 -0.190752 0.338435 0.204643 0.375424 -0.0386611 0.450789 -0.123955 -0.320999 -0.0392919 -0.465733 -0.34948 -0.32309 -0.161528 0.154147 -0.203174 0.102179 -0.251248 -0.427119 0.447717 -0.439907 0.195545 0.327985 0.443417 0.164611 0.468263 -0.373077 -0.0322174 -0.276646 -0.511902 -0.265482 0.0527082 -0.112337 0.231079 -0.223946 -0.241317 -0.376849 -0.179229 -0.122014 -0.132391 0.22851 -0.514341 -0.0290726 0.358401 -0.240859 -0.191028 0.25258 0.0232582 0.412015 -0.355037 -0.256032 -0.434087 -0.297388 0.0991644 0.105341 -0.0306126 0.328058 0.237707 0.435438 -0.0537184 -0.122326 0.368272 -0.0895263 0.402544 -0.395618 -0.264295 -0.398343 -0.186675 0.323069 0.096864 -0.102923 -0.141782 -0.0275517 -0.387271 -0.13972 0.109659 0.496307 0.132893 -0.256601 0.122123 -0.457308 -0.45737 0.379561 -0.388089 -0.501406 -0.241436 0.219767 -0.465471 -0.179876 -0.269067 0.0733558 -0.0298276 -0.3663 0.293128 -0.524608 0.00762799 -0.433393 0.0549793 -0.225125 0.252231 -0.159539 0.421766 0.412773 -0.24833 -0.10094 0.24051 -0.435192 -0.0486784 0.00516588 -0.174249 -0.0807666 0.417715 -0.454847 0.181675 0.199672 -0.34702 0.432156 0.0669348 -0.196292 0.160668 -0.236216 0.135499 0.0878208 -0.132132 -0.183011 0.16775 -0.277508 0.212172 -0.0750204 0.422797 0.290067 -0.492659 0.361934 -0.00362272 -0.138036 0.371854 -0.208121 0.374931 0.390183 0.17411 -0.553985 0.333298 -0.503415 0.213387 -0.461656 -0.133524 0.209219 0.0502911 -0.405876 0.282447 0.27777 0.358966 -0.417893 0.282969 -0.425212 -0.447961 0.26696 -0.485071 0.245946 0.285109 0.145204 0.161959 0.223194 -0.497982 0.401928 -0.363892 0.135266 0.304888 0.010559 0.00627548 -0.395781 -0.387448 0.571358 0.100122 -0.172387 0.385378 -0.445688 -0.245232 0.307716 0.164234 -0.167409 -0.273587 -0.0246371 -0.125755 -0.14944 -0.206918 0.306319 -0.472982 -0.145985 -0.371447 0.354687 -0.420856 -0.459354 -0.296684 -0.387275 0.438812 -0.402792 -0.32305 -0.410195 0.153763 -0.0940565 0.436513 0.404804 -0.0890669 0.436731 0.0425372 -0.120503 -0.473608 -0.0492271 0.380184 -0.458337 0.00899645 -0.282794 0.101985 -0.478018 -0.168983 -0.054094 -0.231053 0.401516 -0.118903 -0.255911 0.363613 -0.219479 0.212024 0.0865053 -0.443478 0.467073 -0.0589778 -0.103946 0.0438967 -0.191336 -0.270603 -0.271302 0.221922 -0.523944 0.268294 0.0206362 -0.244866 0.0423584 0.282953 0.447042 0.46567 0.0400715 -0.393307 0.139007 0.0887296 0.368698 0.332206 -0.0604502 0.302872 -0.162999 -0.0601674 0.281316 0.198775 -0.265222 0.116453 0.339965 0.0571939 0.339717 0.420413 -0.0881646 -0.122555 -0.145385 0.178274 0.140652 -0.128852 0.107518 0.31668 0.227189 -0.243367 0.468881 -0.142262 0.439064 0.0189717 0.115615 0.390396 0.136752 -0.165275 0.307624 0.21834 -0.431096 -0.39553 -0.41616 0.321941 -0.20709 -0.222102 0.412211 -0.248851 0.499922 -0.182757 0.249597 0.23694 0.0164587 0.318277 0.404605 0.338396 0.221269 0.446869 0.00225996 -0.31457 0.00486767 0.196402 -0.105499 0.315456 0.00814785 0.0683667 -0.0402651 0.0452052 -0.0866231 0.0734547 -0.353515 0.181441 0.136663 -0.417682 0.142022 -0.20008 0.0408264 -0.0952426 0.215476 -0.14761 -0.451204 0.336048 -0.243645 -0.325194 0.471543 -0.220725 0.268482 -0.393796 -0.430265 0.0728019 -0.105946 0.405475 -0.451951 -0.208801 0.466005 -0.501169 -0.112306 -0.331705 -0.324536 -0.458395 -0.231452 -0.151957 -0.267316 -0.52668 -0.242699 -0.203589 -0.337023 -0.248303 -0.329066 0.266743 0.20123 -0.492465 0.0468195 0.215167 0.383484 0.277734 -0.361202 0.198782 -0.235282 0.30349 -0.444883 -0.0357048 0.442618 -0.213944 0.194192 -0.232209 -0.287948 0.0164494 0.453377 -0.126946 0.236566 0.138677 0.315852 0.199796 -0.0375051 -0.488105 0.0829961 0.19761 0.414687 0.454195 -0.351271 0.483245 0.167867 -0.273309 0.180197 0.0248268 -0.409909 -0.0461592 0.112957 0.0967297 -0.375753 -0.485026 0.182892 0.350776 0.202539 0.413011 0.44328 -0.0893716 -0.382603 0.318516 -0.189267 -0.118356 -0.378895 0.39363 0.134763 0.170416 0.496151 0.100742 0.399472 0.0890678 -0.00691244 -0.327448 0.0293435 -0.436186 0.274407 0.31521 -0.168966 0.401392 -0.261381 -0.123647 -0.369151 -0.486202 -0.0237509 0.105023 0.121445 -0.497123 -0.360096 0.163278 -0.0467705 -0.486461 -0.484513 -0.454777 -0.400277 -0.24231 -0.434644 0.0605222 0.0308695 -0.378384 0.238029 0.0404828 
-0.275414 -0.241356 -0.185202 0.418943 0.0462203 0.0734733 0.0801569 -0.152974 -0.47116 0.00621051 0.0950499 0.497864 0.0855328 0.0211464 0.355354 -0.283776 -0.315699 -0.292383 0.116291 0.170827 -0.483154 0.396542 0.163778 -0.33578 0.193442 -0.296808 -0.185141 0.257683 -0.00630206 -0.101581 0.427396 -0.133625 -0.294256 -0.483254 0.199886 -0.0211148 0.0808904 0.104524 -0.45405 -0.325843 0.45643 -0.471239 -0.171798 -0.450083 -0.475992 -0.279068 -0.296719 -0.226619 -0.15281 0.292045 -0.093505 -0.131083 0.102649 -0.0749382 -0.263878 0.426572 -0.39114 -0.0724052 -0.00486743 0.359547 0.150251 -0.130984 -0.29279 -0.110812 -0.362107 -0.306086 0.363263 -0.084486 -0.329398 0.27329 0.0357227 -0.0784821 0.451102 -0.304631 0.0227106 0.0511506 0.155995 0.248505 0.366885 0.482146 0.241898 -0.386312 0.191885 -0.0312357 -0.16979 -0.00886562 -0.192861 0.358741 -0.483941 -0.330072 -0.365011 0.0138681 -0.232258 -0.0896399 0.10765 0.192818 -0.5258 -0.345505 0.43752 0.0816161 -0.474108 -0.230685 0.366583 -0.44549 0.0423546 0.271445 -0.337748 0.296482 0.340791 -0.229486 0.105134 -0.166616 0.155599 0.0600137 0.0575722 0.461377 -0.0245784 0.0175901 0.351941 -0.246533 0.215261 0.163447 0.13165 0.129188 0.268361 -0.0551367 0.0788868 -0.346249 -0.153843 -0.137942 -0.467964 -0.331255 -0.469033 0.284132 -0.297756 0.226607 0.350078 0.0291738 -0.365495 -0.13628 -0.404324 -0.0197302 0.0729458 -0.407375 -0.46726 0.0485625 0.487452 -0.402205 -0.0649207 -0.0832598 -0.286609 -0.345962 -0.370173 -0.344136 -0.208776 -0.118171 0.230006 -0.540663 -0.457339 -0.0106727 0.0664313 -0.264577 -0.45857 0.0234419 -0.376426 -0.0245363 -0.406319 0.415647 0.193777 -0.210105 -0.262928 -0.391149 -0.404694 0.102874 -0.174947 0.278873 -0.079607 -0.0288297 0.306278 -0.158252 0.203523 0.116941 -0.294322 0.0308414 -0.37935 -0.230884 0.140048 0.0477281 -0.333954 -0.361757 -0.138805 -0.339213 9.5137e-005 -0.348486 0.250992 -0.178407 0.00764489 -0.353121 0.0818918 0.401559 0.0433688 0.402047 -0.335881 -0.357394 0.111976 -0.159427 0.268912 0.177193 -0.388263 0.449739 -0.401485 0.418005 -0.00824158 0.037069 -0.254887 -0.405144 0.380697 -0.33006 0.116418 0.140955 0.150324 -0.328877 -0.503771 -0.204588 0.273784 0.212673 -0.485454 0.0934427 0.0132649 -0.419266 -0.444654 0.19122 -0.0249285 -0.297921 -0.00122449 0.433151 0.322315 -0.238034 0.12965 -0.23928 -0.252664 -0.0184893 -0.215928 -0.00577353 -0.312376 -0.245514 0.103155 -0.416818 -0.262632 -0.318494 -0.186275 0.367363 -0.0283413 -0.166916 -0.363886 0.422557 0.0970867 -0.0864081 -0.0500453 0.0310147 0.051964 -0.455302 -0.16174 -0.254096 0.0163012 -0.176336 0.400603 -0.275284 0.185138 0.305713 -0.256543 0.447178 -0.467046 -0.0901354 -0.534048 0.103336 -0.53249 -0.482859 0.0543174 0.450143 -0.49294 0.363809 0.157883 -0.0821614 0.194346 -0.374266 -0.263582 0.269643 0.291974 0.265619 0.204488 0.388908 0.00554799 -0.0305188 0.0558598 0.419812 0.219356 0.456206 0.247954 0.507421 0.0703176 -0.0724596 0.36539 0.0350012 0.253163 -0.010284 0.451249 -0.378867 -0.266223 -0.0174213 -0.162543 -0.0472385 -0.229681 0.0867531 0.0235285 0.418064 0.160715 0.149336 -0.210271 0.157744 -0.360557 -0.136274 -0.478709 -0.382025 0.405257 -0.153773 0.225284 -0.0234937 -0.0937863 0.467212 -0.498086 -0.289323 0.242598 -0.365866 -0.0931021 0.224604 0.0312583 -0.172004 -0.0701846 0.255451 -0.3377 0.21987 0.307162 -0.098667 0.436784 0.344455 0.30732 -0.0144607 -0.434323 0.0202862 -0.135752 0.123544 0.292512 0.735954 -0.138173 0.210137 0.127441 0.0162063 -0.447296 -0.0389522 -0.372575 0.150226 -0.0776158 0.373362 -0.341853 -0.185788 0.117012 0.00302224 0.21009 0.00701298 0.288504 0.321895 -0.181895 -0.0808634 -0.219904 -0.041654 0.123999 -0.404233 -0.469258 -0.331914 0.252054 -0.0873498 0.158755 0.435375 -0.280496 -0.399914 -0.492404 0.00872773 0.401472 -0.00210845 0.23586 -0.0360625 0.0997192 0.46568 0.388359 0.04862 -0.114818 0.380873 0.485514 0.512769 0.0652998 0.223562 -0.208259 0.264801 -0.276939 0.136771 -0.261519 0.515154 0.482717 -0.050683 0.605838 -0.139131 0.479606 0.464852 -0.0907077 -0.215296 -0.184849 -0.0546916 -0.425774 0.278515 -0.371456 0.108692 -0.168458 0.42057 0.201826 0.452443 0.0262477 -0.00792509 -0.0234763 -0.119687 -0.208328 0.314813 0.130127 -0.0519061 -0.464049 0.302421 0.00745922 0.376569 0.652631 0.553287 -0.466311 -0.214477 0.318809 0.247941 -0.2917 -0.109615 -0.488155 0.279489 -0.203665 0.271154 -0.187602 -0.337976 0.0701265 0.30723 -0.365079 -0.0347186 -0.220679 0.291515 -0.27816 0.289613 -0.364356 0.0652861 0.330821 0.623354 -0.130547 0.750792 -0.0887577 -0.06039 0.306637 -0.581848 0.10409 -0.155257 0.46943 -0.151807 -0.0959545 0.187033 0.0765557 -0.370003 -0.489954 0.119085 0.350652 0.269712 0.242207 0.448203 0.372785 0.190584 0.218428 -0.360912 -0.0933274 -0.0149394 0.4983 0.155137 -0.229135 -0.0236276 -0.338035 -0.174657 -0.140156 -0.12414 0.019729 -0.269094 -0.139656 0.42629 -0.135886 0.433972 0.375842 0.35149 0.266203 -0.254974 -0.224168 -0.0579654 0.205381 -0.448237 -0.0330047 -0.267041 -0.263968 0.0244763 0.190962 -0.116559 -0.104132 -0.17588 -0.145497 -0.372311 -0.328918 -0.316157 -0.248154 -0.22758 -0.468227 -0.219828 0.351496 -0.400567 -0.260644 -0.409367 -0.366512 0.167605 -0.266401 -0.466529 0.00997373 -0.0727659 -0.44395 -0.577187 0.192651 -0.351272 -0.598434 -0.306161 -0.0090389 -0.244686 0.426753 0.366617 0.307791 -0.442433 -0.457359 -0.0353104 0.0577703 0.328875 0.243236 -0.0441519 0.276622 0.209067 0.0793526 0.354059 0.227989 0.0331603 0.282467 0.177687 0.0410014 -0.500408 0.31513 0.24135 -0.249074 -0.720053 0.0902731 -0.560954 0.404618 -0.443255 -0.495728 0.375288 -0.118107 -0.433858 -0.531905 -0.627227 -0.0696449 -0.344726 -0.441858 0.249012 0.443527 -0.0748717 0.0410943 0.196517 0.407956 -0.294787 -0.370211 0.0566455 -0.357389 0.0969031 0.317716 -0.406737 -0.423075 -0.181318 -0.021812 0.122493 0.346814 -0.424837 0.0213891 -0.268588 -0.322213 -0.12898 -0.419488 0.14651 0.342542 -0.553895 -0.02719 -0.308597 0.478158 0.114529 0.215785 -0.234855 0.468139 0.0920243 0.172673 0.109735 0.0994914 0.0534611 -0.507331 0.337121 0.316791 -0.252484 -0.251981 -0.186253 -0.507229 0.322122 0.0899581 -0.471493 0.0146311 -0.00110789 -0.00463319 -0.235078 0.213644 -0.514127 -0.00515682 -0.447614 -0.38723 0.392758 0.3393 -0.37286 -0.11211 -0.288202 -0.0131626 -0.281675 -0.0707793 0.263265 0.116202 -0.20336 0.370022 -0.459324 -0.440416 -0.236325 -0.0798804 -0.125767 -0.26766 0.152079 0.305026 0.251051 -0.391186 0.317038 -0.386088 -0.228859 0.0844177 0.331272 0.0989124 0.222785 -0.146549 0.454985 0.151448 0.107898 -0.0441109 0.192771 -0.170675 0.299306 0.0462158 0.148174 0.187263 -0.15842 0.294102 -0.26975 0.42858 -0.267118 -0.434917 0.118732 -0.447316 -0.27991 0.100449 0.0498186 0.368959 -0.349384 -0.329187 -0.381928 0.00766126 0.414866 -0.206507 0.244407 0.468261 -0.43878 0.00757224 -0.0643292 -0.475844 -0.353838 0.236078 -0.355216 0.0383031 0.19556 -0.0592299 -0.185299 0.150131 0.0277234 -0.276911 0.464039 -0.272829 0.194395 0.362451 0.413867 -0.222533 -0.182848 -0.321727 0.422032 -0.398235 -0.139969 -0.0360351 -0.34048 0.113025 -0.0533311 -0.078692 -0.103595 -0.201417 -0.44784 -0.353832 -0.269754 -0.172874 -0.00617812 0.383809 0.342052 0.1544 -0.0233615 0.389772 0.1679 0.439538 0.280993 -0.411227 -0.131271 0.486507 0.378844 -0.497633 0.0639742 0.0239722 0.33992 -0.124744 0.0987121 -0.396908 0.0749077 -0.323267 0.403165 0.377529 0.245054 0.0170111 -0.155709 -0.349799 -0.257047 0.327954 0.300197 -0.247566 0.157366 -0.411255 0.122118 0.30209 0.127243 -0.145895 -0.386506 0.359681 0.0175003 -0.0626477 0.226948 -0.485992 -0.234336 0.4082 -0.42523 
0.432859 0.364803 -0.188314 -0.0410016 -0.0958434 -0.145894 0.30755 -0.441496 -0.091174 0.237053 -0.451842 -0.0717643 -0.254711 0.226775 0.0628225 -0.0308085 -0.255119 0.231895 -0.0665151 0.0258034 -0.397488 0.47702 0.0429853 0.266442 -0.137379 -0.317957 -0.323298 0.00340283 -0.416898 0.189474 -0.240928 0.108386 -0.28634 -0.0445725 -0.494016 0.180196 0.215997 0.307175 -0.225681 -0.379837 0.467609 -0.121885 -0.109476 0.275282 -0.036619 -0.377352 0.240282 -0.207648 -0.155336 0.299694 0.392625 0.363879 0.332514 0.382473 0.0557726 -0.00642416 -0.4747 -0.260094 -0.368954 -0.0401776 -0.354007 0.0323368 -0.348445 -0.379436 0.244708 0.213304 -0.118091 0.213186 0.394944 0.0511976 0.372531 -0.153825 0.468564 0.148472 0.304601 0.267346 0.320311 0.0699388 -0.343024 -0.385004 -0.239853 0.480469 -0.155599 -0.266259 -0.0621815 -0.250084 0.418937 0.460653 -0.40479 -0.303347 -0.464473 0.142381 -0.188281 0.204773 -0.410286 -0.155652 0.0563704 0.263796 -0.232183 -0.186542 -0.497748 0.300697 -0.124351 0.305932 -0.013297 0.0969067 0.0356608 -0.346831 0.0522745 0.276943 -0.468041 0.067278 -0.145589 -0.0736866 0.0781747 0.0174873 0.0228599 0.0209455 0.0711565 0.119208 -0.0157928 0.102169 0.0503545 -0.107152 0.342568 0.123233 0.445838 0.307154 -0.131129 0.306277 -0.0677914 -0.0103281 -0.297795 -0.202125 0.472144 -0.0709501 -0.169705 -0.220425 0.139402 0.351314 0.462981 0.42758 0.46666 -0.443401 0.156421 -0.162619 -0.191263 0.400965 0.379422 0.206445 0.392856 0.232068 0.253559 0.506309 -0.276272 -0.147854 -0.25186 -0.105501 -0.332696 0.348006 0.0909507 -0.353313 0.103521 0.140571 0.363258 -0.305683 -0.40733 0.192465 0.273309 0.235496 -0.394476 -0.380383 0.0799122 0.307016 0.529938 0.331276 0.410907 0.49159 -0.320369 0.342303 -0.0992368 -0.237545 0.0873085 -0.23306 -0.393052 0.461302 -0.11607 -0.209864 0.523083 -0.00534026 -0.0713846 0.0246058 -0.418331 0.258184 -0.378397 -0.346421 -0.127094 -0.237044 0.231313 -0.424594 0.449517 -0.334598 0.441345 0.0931877 -0.348988 0.224945 0.112345 0.252317 -0.21104 -0.0594888 -0.00418097 0.384449 -0.489819 -0.43573 0.138486 0.48432 0.0192813 -0.152531 0.182538 0.0177301 0.335768 0.208604 0.112462 0.0231014 -0.010636 -0.457822 0.10737 -0.43124 0.0389324 0.42019 -0.14085 0.358931 0.0715066 0.11552 0.240896 0.296043 -0.29417 -0.22118 -0.0544712 0.0974598 0.315333 -0.467591 0.329296 -0.15661 -0.172605 0.610543 0.511701 0.038856 -0.230326 -0.137423 0.441768 -0.25371 0.0780387 0.334775 0.0555024 0.264886 -0.148506 -0.0855144 0.00134597 0.0399366 0.52915 0.234065 -0.0996329 0.163757 0.314115 -0.207114 -0.0236685 -0.332643 0.459803 0.413612 0.311695 0.454364 -0.118177 -0.149912 0.12598 -0.241711 -0.239868 0.452006 -0.303957 -0.3942 0.153995 -0.486964 0.210453 0.0285172 0.0224117 0.558945 -0.321932 0.0473994 -0.136151 0.366505 0.255734 0.283148 0.395786 -0.0719876 0.0255741 0.182671 0.426107 -0.149542 -0.0718665 0.218652 -0.0120247 0.1836 0.0308829 -0.433447 0.374403 -0.246779 0.297285 -0.253632 0.0866911 0.0491289 0.407976 -0.418513 0.190256 -0.425143 0.472338 -0.347051 0.0451586 0.236804 0.161669 -0.376133 0.0332421 -0.204753 0.551132 0.355095 -0.237555 0.0408785 0.17561 0.433104 -0.159427 -0.383454 -0.0254514 -0.150987 0.456052 0.184749 -0.040393 -0.357343 0.0769593 -0.0377533 0.228714 -0.23261 -0.418497 -0.445345 0.285449 -0.354489 0.0973558 -0.363058 0.221972 0.180539 0.0218699 0.00123838 0.536263 -0.0286086 0.28896 -0.0442943 0.271135 -0.288785 -0.307645 0.123627 -0.181126 -0.405022 0.0132186 0.341125 0.492684 -0.399189 -0.466948 -0.437993 -0.357491 0.493237 -0.465055 -0.197257 -0.192428 -0.251085 -0.100434 -0.421707 -0.378108 -0.202007 0.441719 -0.271076 0.375495 -0.0585913 -0.0473699 -0.0988091 0.351953 -0.437029 -0.404558 -0.390147 -0.0220944 0.0242293 -0.189517 0.265583 0.37569 -0.120462 0.0673085 0.336088 -0.283436 0.476822 -0.324959 -0.311752 -0.191218 -0.372005 -0.140302 -0.3684 0.0667855 0.338764 0.318883 0.454949 -0.00585254 0.353712 -0.326829 0.208734 0.357536 -0.360253 -0.43412 -0.444928 -0.234451 0.276611 -0.322045 0.284923 -0.392787 0.0420409 -0.170614 -0.17745 0.373632 -0.154353 0.455212 -0.136519 -0.180234 -0.118402 -0.508833 -0.537803 -0.20894 -0.319306 0.249592 0.166155 0.0853118 0.360347 -0.124331 -0.295364 0.116714 0.276638 0.146762 0.20401 0.273831 -0.289064 -0.101728 -0.220765 -0.22693 -0.385 -0.10271 0.314386 -0.34515 0.220129 0.295696 -0.224713 0.00309373 0.113743 -0.609349 0.238256 -0.0042777 -0.229095 0.217521 -0.148628 -0.221686 0.234281 0.292461 -0.34401 0.147348 0.224716 -0.353991 -0.327172 -0.353529 0.0299357 0.327862 -0.272525 -0.1894 -0.342183 -0.0569933 -0.263351 0.459797 0.357036 0.00192232 0.204087 -0.122375 -0.30569 0.0624568 -0.318818 -0.0717391 -0.729495 0.0963384 0.303736 -0.0316243 -0.301675 -0.0632116 0.450614 0.0281065 -0.488801 -0.135252 -0.38908 0.230464 -0.306687 0.449044 0.343024 0.45071 0.337077 -0.107452 -0.45917 0.243499 -0.0323582 -0.248803 0.269138 -0.296149 0.462036 -0.433031 -0.439931 -0.0777125 -0.051769 0.373725 -0.0676471 -0.309234 -0.0784708 0.164706 -0.0410997 -0.296514 0.0537974 0.457125 0.0221631 -0.452566 -0.199072 0.155788 -0.3166 -0.214436 0.0910269 -0.201071 -0.0377891 -0.381153 -0.25085 0.264731 -0.36839 0.110062 -0.275693 -0.314082 -0.211993 -0.326187 -0.437927 -0.180736 0.00461237 -0.373881 -0.0554302 0.415509 -0.308706 -0.154844 0.315382 -0.347836 -0.0398058 -0.35733 0.0334268 0.404368 -0.447707 -0.0612715 0.487995 -0.353206 0.480078 0.347352 0.310401 0.512405 0.431211 -0.136952 -0.260911 0.601667 0.02602 -0.356292 -0.0341372 -0.083584 -0.0796616 -0.0222723 0.296265 -0.246674 0.0474887 0.00360994 0.274639 -0.39676 0.434295 -0.263491 -0.365535 0.486462 -0.469895 0.308752 0.36551 0.307246 -0.171874 -0.313058 0.00609553 -0.42491 -0.381385 0.32911 0.47743 0.598377 0.220218 0.102512 0.174537 0.277618 0.343945 0.0406392 -0.431824 -0.45812 -0.429001 -0.107447 -0.0315042 -0.0581118 0.402029 -0.474956 0.184958 0.14657 -0.480899 0.360226 0.347984 0.361965 0.397489 -0.44393 0.315942 -0.144089 0.0081934 0.479113 0.478166 -0.173338 -0.1912 0.00135639 -0.107467 -0.0678744 0.0172409 -0.173706 0.44694 0.287152 0.302556 -0.224576 0.265064 -0.00561318 0.21456 0.336874 0.173153 0.243348 -0.408347 0.416989 0.333941 0.0152745 0.375637 0.491816 -0.16928 0.475751 0.0800243 -0.0389953 0.35753 -0.0811001 -0.15442 0.472699 -0.135675 -0.108421 0.579972 0.450998 0.171966 -0.0732064 0.525402 -0.186523 -0.117539 0.183532 0.321622 0.396161 -0.0573179 0.203108 -0.46945 0.434198 0.048204 -0.187307 0.46527 -0.13148 0.48333 -0.0301757 -0.306472 0.159809 0.230115 -0.234363 0.198639 0.0470143 0.238433 0.421414 0.420639 -0.0362872 0.571434 -0.255051 -0.380274 -0.239555 0.26209 -0.10321 -0.46592 0.29198 0.194301 -0.0410615 -0.124215 0.221924 0.252403 0.385037 -0.472564 0.34213 0.0848566 0.0676168 -0.287741 -0.0704541 -0.261877 0.0295353 -0.25599 -0.211916 0.35904 -0.394013 0.164321 0.00289291 -0.203952 0.472776 -0.414844 0.00769567 0.289581 0.440768 -0.217551 0.086607 -0.444247 -0.384242 -0.158899 0.0847415 -0.292932 -0.0635243 -0.00785851 -0.00450149 -0.231193 -0.285107 -0.273165 -0.30421 -0.336577 0.187677 0.105299 -0.446012 0.423303 0.270406 0.251787 0.185722 -0.0739402 0.351728 -0.173336 0.364463 -0.418634 -0.47318 -0.301226 0.0274851 0.348966 -0.475113 -0.0711069 0.341029 0.479736 -0.304407 0.37994 0.14687 0.438719 0.12862 -0.16721 0.489073 0.449942 -0.410995 0.201535 -0.480466 -0.108291 -0.0597333 0.382119 -0.428106 0.203962 0.0726749 -0.378139 -0.328406 0.430286 -0.177636 -0.197802 0.313758 0.131521 0.0253151 -0.402768 -0.300134 -0.307764 
0.048265 -0.220847 0.294549 -0.190786 0.0274819 -0.24868 -0.0525376 0.24575 0.221519 -0.409879 0.373257 -0.473601 -0.44888 -0.450278 0.261428 -0.272425 -0.147938 0.427335 -0.195914 0.0199133 -0.127277 -0.302393 -0.0797907 0.11919 -0.453642 -0.181021 -0.0406049 0.301569 -0.429624 -0.378567 0.164541 0.139454 -0.176376 0.180149 -0.323706 -0.384665 -0.346246 0.0830073 0.3606 -0.232954 -0.439504 0.491393 0.23036 -0.481881 0.312258 -0.0874851 -0.226527 -0.128897 0.0410561 0.0852146 -0.0757371 0.0836485 0.302179 -0.123188 -0.00440994 0.00721765 -0.319544 -0.399777 0.330474 0.247116 -0.0516081 -0.327209 -0.0282513 0.28906 0.313338 0.00912466 0.126452 0.257373 -0.216993 0.0484632 -0.326946 0.42395 0.148815 -0.195282 -0.44153 0.227051 -0.264161 -0.0487033 0.304762 -0.193327 0.290729 0.238184 -0.488617 -0.120319 0.129505 0.0752739 0.374576 -0.0995128 0.051097 -0.0850135 0.360575 0.399747 0.0922734 0.171778 0.0634451 -0.507206 -0.410533 0.114554 0.124329 0.3148 -0.273074 -0.20304 -0.460801 0.391097 -0.388796 -0.235386 -0.302355 -0.298768 -0.176282 -0.143103 -0.485901 -0.19689 0.0478072 -0.192526 0.0584098 0.18104 0.284146 -0.264134 -0.0805483 0.336456 0.0569717 -0.544426 -0.250395 0.3121 -0.0523458 -0.0193554 -0.203478 0.00333839 -0.393457 -0.352268 0.276395 -0.194446 0.0545894 0.0873079 0.0871338 -0.312111 0.292065 -0.263217 -0.00998755 0.326258 -0.232902 0.367458 0.472763 -0.0896709 0.396975 -0.29973 -0.111689 -0.0747887 -0.287149 -0.295045 -0.192322 -0.342753 -0.0558226 0.309675 -0.283209 -0.410666 0.330941 0.0233083 0.0820713 -0.351378 0.482689 0.255512 -0.187394 -0.115146 0.396147 0.112412 -0.255219 0.0153356 0.136952 0.0617235 -0.367509 -0.268762 -0.14094 -0.333253 -0.454684 -0.169659 -0.0026755 -0.0812637 -0.551411 -0.268482 0.0960041 0.0511269 0.340956 0.533927 -0.238646 0.281144 0.422452 -0.23396 -0.0721512 -0.207332 -0.0283567 0.262764 -0.428087 0.0881763 -0.118629 -0.0967481 -0.446287 -0.28032 0.49022 -0.0420027 -0.263452 0.0287522 -0.374496 -0.231791 -0.349524 -0.249642 -0.0771917 -0.384694 -0.239221 -0.139058 0.208659 0.263266 0.487555 0.103668 -0.270436 -0.0171193 0.352167 0.0912967 -0.301035 -0.13899 -0.230206 0.0425579 -0.126535 0.125697 0.421638 0.186865 -0.166592 -0.250546 -0.509369 0.111277 -0.484473 -0.181653 -0.452161 0.334677 0.301423 -0.0722129 -0.120667 -0.10699 -0.268762 0.198469 -0.00622141 -0.332462 0.296829 -0.356221 0.247623 -0.124942 0.199694 0.553632 0.402803 -0.269669 -0.280292 0.34506 0.263549 -0.133033 0.0406322 -0.264601 -0.496032 -0.462937 -0.368465 0.490531 -0.379349 0.498335 -0.110437 -0.0758315 0.391118 0.191768 0.254253 0.196638 -0.0983289 -0.566349 0.124638 -0.35146 -0.212315 0.263014 -0.0157368 0.144443 -0.342267 0.330036 0.135625 0.0474539 0.202063 0.154479 0.147966 -0.336356 -0.520929 -0.122454 -0.182834 0.290098 0.248708 0.674069 0.609864 0.598358 -0.0478471 -0.170648 0.184434 -0.438209 -0.561113 -0.318758 0.155709 -0.320474 0.220451 -0.344344 0.387442 -0.309351 -0.210986 0.364915 0.264434 0.311079 0.0271591 0.104889 0.213549 0.198774 0.456017 0.427195 0.295727 0.430791 -0.122133 0.650382 0.230033 0.448505 0.724774 0.00961419 -0.0338742 -0.0588093 -0.540122 -0.27479 0.0868752 -0.0212285 -0.152726 0.457654 -0.252099 -0.225308 -0.231775 -0.258658 -0.156875 0.139757 -0.429044 0.185156 0.437523 0.40068 -0.29808 0.481581 0.224233 0.240941 0.577717 -0.173151 0.325908 -0.237198 0.632707 -0.0319723 -0.219609 0.361641 0.13719 -0.373235 -0.245053 0.254421 -0.0522277 -0.109927 0.319427 -0.290696 -0.215173 -0.178918 0.336572 -0.0438451 -0.391535 0.448618 0.0218547 0.0519512 0.0921149 -0.0324047 0.266109 0.51894 0.0428342 0.255536 0.0621662 0.325491 0.329974 0.625539 -0.132005 -0.352077 -0.602015 0.18739 -0.518183 0.295874 -0.330751 -0.108705 0.270329 0.423843 0.121239 -0.117583 -0.0162039 0.342558 0.0015412 -0.0231954 0.220171 0.399477 0.370983 -0.247848 0.182474 -0.291284 -0.200856 -0.0793061 0.167932 0.450567 -0.284246 0.142879 0.174848 0.384262 -0.476476 0.084177 0.14008 -0.218852 -0.407239 0.170278 -0.209052 0.0300751 -0.102951 -0.244924 0.221173 -0.367569 0.306665 -0.0677053 -0.448713 0.373586 -0.198386 0.417695 -0.28043 -0.0900539 -0.327487 0.171872 -0.0269774 -0.0434388 0.256478 -0.0652706 -0.362795 -0.000672525 -0.429786 0.04528 -0.531418 0.0248624 -0.0310815 0.434739 -0.215539 -0.372303 -0.0639787 0.0369412 0.469753 0.437706 -0.436491 0.0665573 -0.351922 -0.0897643 -0.427007 -0.080979 0.0149547 0.498903 0.0917827 -0.122873 0.337265 -0.298009 0.0555529 0.460096 0.224445 -0.358277 -0.577256 -0.504104 0.260352 0.27606 -0.332331 0.062669 0.0941874 0.518179 -0.454375 -0.331237 -0.260014 -0.288413 0.484558 0.0265283 -0.284252 0.459619 -0.358836 -0.0377036 -0.161876 0.243734 0.264548 0.646211 0.211267 0.446202 0.28773 -0.382745 -0.268879 -0.256886 0.302482 -0.489462 0.0688016 -0.189881 -0.206894 0.183172 -0.275073 0.386947 0.385787 0.27692 0.0225054 0.438757 -0.236836 0.307106 0.0537585 0.296209 0.225964 0.384996 -0.306107 -0.311665 -0.0308499 0.0449336 0.327548 -0.0841991 0.448492 -0.453731 0.271566 -0.121471 0.278522 -0.258187 -0.029351 -0.316662 0.0466283 0.333637 0.0189617 -0.488708 0.0860329 0.065566 -0.0565699 -0.460472 -0.279778 0.182065 -0.375034 -0.315944 -0.349952 -0.479349 0.330714 -0.145076 0.480206 0.213515 0.109419 0.247637 0.366596 -0.090719 -0.33098 0.0297216 -0.29892 -0.103075 -0.377635 -0.00524927 -0.314499 -0.23015 0.349785 -0.329521 -0.0550247 -0.350532 -0.351578 0.0995433 0.00733972 0.474824 0.130937 -0.494142 -0.23613 -0.332779 -0.489904 -0.0933844 0.0654985 -0.325928 0.100566 -0.170927 0.172087 0.481391 -0.234822 0.165616 0.0879451 -0.35304 -0.26803 0.219271 0.090362 -0.457699 0.207702 -0.182441 0.354958 -0.354736 0.38957 0.499723 -0.415301 0.494424 -0.432389 -0.513536 -0.239857 -0.22111 0.406176 0.402558 0.0248273 0.260432 -0.346065 0.277906 0.174528 -0.0141361 -0.19124 0.196315 -0.128893 0.31645 0.289858 -0.370478 -0.133697 0.346316 0.143773 0.0673587 0.186929 0.399998 -0.233425 -0.449481 -0.305954 -0.00398158 -0.27125 -0.444818 0.356957 -0.451038 -0.0326469 -0.427555 -0.471834 -0.42722 -0.158953 0.450663 -0.113677 0.0142983 0.475054 -0.183253 -0.247198 0.41909 -0.359843 0.382406 0.400272 0.338263 -0.382793 0.105617 -0.143754 -0.358309 0.10779 0.222241 0.0439619 0.498047 -0.370451 0.469211 0.398945 -0.389153 0.175167 -0.220306 0.142115 0.19745 0.487023 -0.152565 -0.156775 0.297996 0.274473 0.0266086 0.437355 -0.153937 -0.412655 -0.360711 -0.0976365 -0.166091 0.0537359 -0.328668 0.304343 0.439 -0.039872 0.0635548 -0.0731376 -0.193777 0.301959 0.276274 -0.199354 -0.398561 -0.195872 -0.133214 0.0446481 -0.50125 -0.472002 0.278749 -0.386202 0.0740998 -0.0348567 0.398177 0.479119 -0.0107304 0.390528 0.23 0.0425349 0.332245 0.335246 0.16898 -0.412879 0.324548 0.144635 -0.0952635 0.486602 0.0863521 -0.0424346 -0.288294 -0.305125 0.391249 -0.482614 0.223675 -0.19526 0.0544383 -0.222219 -0.123689 -0.22678 0.424742 0.299889 0.427304 -0.28725 0.492701 -0.00673472 -0.209408 -0.0403619 -0.385794 -0.0190261 -0.0369429 0.302816 -0.128564 0.351305 -0.0633107 -0.145131 0.329341 -0.0355083 0.146687 0.0473504 0.370201 -0.295054 0.049777 0.398055 -0.0741144 0.433177 0.377455 -0.373811 -0.292211 0.313511 0.181871 0.210311 0.334973 0.142952 0.0523487 -0.309023 0.205089 0.0591366 -0.464087 -0.425701 -0.379175 -0.247826 -0.238701 0.375942 -0.447172 -0.380673 0.149251 0.308283 0.273692 0.481851 -0.259024 0.207198 -0.118714 -0.28845 -0.0912913 -0.0121101 0.0280492 -0.34599 0.201119 -0.27187 -0.200792 -0.363626 0.48793 -0.0893538 0.131738 0.295952 -0.00429239 -0.195212 -0.322504 -0.414243 -0.493957 
-0.362453 -0.417081 0.175985 0.262993 0.442289 -0.0321513 -0.452177 -0.203757 0.210349 -0.383602 -0.426237 0.313227 0.345742 -0.261081 -0.14436 -0.190298 -0.0426801 0.220847 -0.39642 -0.442106 0.0196997 0.263115 0.337519 0.127674 -0.064684 -0.176901 0.191733 -0.403134 -0.472442 -0.240532 0.104663 0.107929 -0.00312901 0.0885153 -0.325791 0.425411 -0.129269 0.258145 -0.0389343 -0.346351 0.480326 -0.154545 0.0189086 -0.233374 -0.0062117 -0.411501 0.439722 0.111089 -0.468646 0.141672 -0.322663 -0.46963 0.410855 0.491729 0.460875 0.28283 0.0345927 0.409116 0.0479293 0.388752 0.461114 -0.14059 -0.38152 -0.421722 0.18953 -0.223916 -0.416386 0.488941 0.182962 0.0889298 0.0831461 0.277035 -0.303469 0.483979 -0.492844 0.289569 -0.158952 -0.387827 0.172874 -0.057225 -0.421353 0.449736 0.169912 -0.493377 0.0115207 0.429685 0.442656 -0.0962298 -0.386532 -0.0745579 0.00575534 0.20051 0.376914 -0.0705005 -0.457459 -0.0624935 0.407641 0.310662 0.14363 -0.0172171 0.0773994 -0.309689 -0.427501 0.0149264 0.0906573 0.0847283 -0.364855 0.352286 -0.263179 -0.475597 0.169912 0.214682 -0.379238 -0.1704 0.276656 0.149892 0.0815049 -0.453358 0.123874 -0.275207 -0.26022 0.450715 0.123073 0.139832 0.180879 0.416796 -0.32903 -0.0125726 -0.47822 0.418081 -0.474564 -0.284937 0.38214 -0.22033 0.458073 -0.0147735 -0.445381 0.226576 -0.103149 -0.299951 -0.320246 -0.433775 -0.0509492 -0.383262 -0.164851 -0.00350827 0.100362 0.410242 0.0477726 -0.143111 -0.238766 0.249233 0.096571 0.0288409 0.299141 -0.41433 0.00365879 0.425528 0.311655 0.343082 0.0327182 -0.183827 -0.234453 -0.238674 0.0818161 -0.391038 0.173856 0.0727103 -0.374233 -0.473479 -0.297242 0.364503 -0.170467 -0.485863 0.446482 -0.362335 0.0752202 -0.281168 -0.331774 0.494424 0.404587 -0.220104 -0.112425 -0.300354 0.0852463 -0.0972109 0.530251 0.289068 0.0640787 0.39739 -0.0185815 0.288145 0.0386825 0.201012 -0.228133 0.450346 0.318415 -0.00556305 -0.401415 -0.0191543 -0.482637 -0.355003 0.397441 -0.295766 -0.44917 -0.277539 0.0119007 0.496454 -0.252153 -0.345188 -0.262135 -0.171862 -0.018135 -0.358938 -0.10189 0.425432 -0.157692 0.169005 0.435134 0.0544651 -0.338411 0.362128 -0.303252 -0.0368442 0.398982 0.448734 0.498903 0.50218 0.4453 0.299222 0.039243 0.231463 0.145311 0.290475 0.179221 0.248435 0.211465 -0.106737 0.258837 0.18382 0.0964477 -0.131404 0.525099 -0.43689 -0.229291 -0.163562 -0.125046 -0.0979584 -0.182659 -0.0656284 -0.316659 0.168241 0.42523 0.0312934 0.0222906 0.399522 -0.341834 0.419645 -0.261168 -0.14147 -0.0808349 0.349121 0.100427 -0.0224547 -0.0960184 0.0475505 0.0605076 -0.219325 0.440261 0.534467 -0.437242 -0.26616 -0.0223657 -0.0215664 0.307529 0.272516 -0.478141 0.465922 -0.156669 -0.0360671 0.499692 -0.461129 -0.0365936 0.229559 0.117107 -0.447133 -0.223408 0.234888 -0.16579 -0.1367 0.0870998 -0.340697 0.304996 0.455956 -0.28432 0.0950417 -0.0806684 -0.249992 0.261654 -0.326644 0.138414 0.430138 0.194043 0.417364 -0.335132 -0.0907773 -0.0450547 -0.398264 -0.388389 0.27211 0.112147 0.0419812 -0.0883831 0.233113 -0.306819 -0.0864634 0.434799 0.464227 0.164665 -0.00977156 -0.192807 -0.345699 -0.0135485 0.234502 0.347264 -0.297997 -0.332079 -0.268258 0.170854 0.0673307 -0.492789 0.156591 0.146632 0.123195 0.354593 -0.113477 0.41078 -0.408867 -0.0340267 0.121802 0.382064 0.422839 0.28525 0.204634 -0.446508 0.218112 0.318245 0.464428 -0.395189 0.00557778 -0.309519 -0.25849 -0.0536386 -0.0987089 0.324706 -0.255991 0.0532138 0.320322 -0.434279 0.234987 0.112267 -0.00264385 -0.100465 0.160283 -0.369778 -0.481483 0.29363 0.171234 -0.0557137 -0.0759366 -0.288828 -0.370664 0.231057 -0.378441 -0.403449 -0.328011 -0.0363269 -0.175499 -0.110737 -0.044304 -0.331601 0.0936915 -0.121308 -0.0828902 0.364998 0.268574 0.133097 -0.0590733 -0.461716 -0.419076 -0.0276277 0.162863 -0.11977 0.23594 0.0167991 -0.473638 -0.218484 0.0771101 -0.278392 0.126515 -0.392552 -0.0997047 -0.27417 -0.393338 0.0448464 0.089217 0.266354 -0.0596342 0.0389085 -0.332215 0.158264 0.430473 -0.0594852 -0.349319 -0.277413 0.00488178 -0.122504 0.0396299 -0.00204999 0.363396 0.0278481 -0.183462 0.389021 -0.494836 0.213999 -0.371441 -0.51897 -0.51567 -0.0463473 -0.125599 0.00745723 -0.22461 -0.271521 -0.481719 0.0482608 0.306498 -0.385376 -0.0915289 -0.310609 -0.211906 0.221252 -0.340225 -0.375759 0.432852 -0.0192641 -0.219283 0.434354 -0.14348 -0.114856 0.038617 -0.0678599 0.469008 -0.133021 0.0771266 -0.0763203 0.183088 -0.445155 0.143627 0.0279329 -0.152251 -0.0559841 -0.49308 -0.407072 0.423071 -0.0165353 0.00247343 0.131649 0.509236 -0.395258 -0.162186 -0.403989 0.317946 -0.00688135 -0.4027 -0.287445 0.415905 0.421628 -0.377969 0.101774 -0.292191 0.401283 0.335835 0.0898418 0.174775 -0.36727 0.0227167 0.212758 0.0731658 0.148578 -0.248996 0.0832481 0.359251 0.404712 0.118672 0.522289 0.225192 0.416467 -0.0816767 -0.33386 0.251284 0.479912 0.172029 0.0949095 -0.200054 0.221216 -0.267565 0.147815 -0.272817 0.0220157 0.074605 0.473889 -0.222813 0.17976 0.058373 -0.43761 -0.255312 0.114961 -0.202158 0.197933 -0.33154 -0.251951 0.349633 -0.155383 -0.151624 -0.161816 -0.0108339 0.0740449 0.44503 0.481621 -0.209107 -0.0852765 -0.0950861 0.402066 0.0968367 0.144629 0.0364713 0.495894 -0.397453 -0.170817 0.182164 -0.224494 -0.455095 -0.322842 0.0446006 -0.353782 0.337142 0.288379 -0.350228 0.12474 -0.149518 -0.100708 -0.106922 0.450507 -0.20161 -0.237975 0.113495 -0.272388 -0.39278 0.174311 -0.1447 -0.281976 -0.425856 -0.34771 0.0398118 -0.144794 -0.415199 0.334897 -0.263586 0.0890143 -0.29364 0.463577 -0.202851 -0.238612 -0.0824902 0.171805 0.237615 -0.261231 0.122338 -0.0904021 0.405111 -0.419305 0.510184 0.405401 0.247418 -0.288441 0.294917 -0.0442808 -0.372112 0.0604095 -0.474455 -0.0148133 0.106765 -0.454104 0.470193 -0.291942 -0.44058 0.436519 0.0470242 -0.452149 0.295425 -0.150812 -0.469198 -0.319834 -0.0705746 0.250659 -0.373969 -0.131379 -0.181207 0.2091 -0.194174 0.446361 0.334485 -0.160046 0.427158 -0.367021 0.303369 0.0789651 -0.174673 -0.450822 0.437388 0.243156 -0.0156781 0.133622 -0.388979 -0.0248087 -0.354301 -0.252456 -0.396261 -0.117283 0.425764 0.153135 0.00785738 0.395409 -0.273965 0.0694513 0.143855 -0.338823 -0.310982 0.146507 0.187104 0.412468 0.452289 0.33843 -0.461547 0.140797 -0.140065 0.220821 -0.21091 0.00193502 0.485805 -0.465421 -0.227717 -0.23724 -0.26998 -0.344139 -0.431913 -0.31993 0.3059 0.372531 -0.382911 0.130933 0.288343 -0.132783 -0.236956 -0.14488 -0.188836 0.0654602 0.397015 -0.387827 -0.408415 -0.340175 0.352473 0.34579 0.356533 0.238258 -0.309777 0.0144678 -0.427923 0.0967495 0.0829711 -0.483831 0.406211 -0.148505 0.202594 0.299339 0.0286474 -0.0733173 -0.107119 -0.0393302 -0.306767 0.0479434 0.241152 0.178215 -0.404467 -0.0922816 -0.471647 0.238993 0.489775 0.0321498 -0.178152 -0.182394 0.385037 -0.430962 0.207104 -0.323935 -0.2342 -0.410717 -0.355433 0.116053 -0.120595 -0.358224 0.39147 0.321215 -0.303343 0.240328 0.446784 -0.402592 -0.366774 -0.260056 0.300324 -0.202203 0.103093 0.313146 -0.316422 0.409603 -0.00839844 -0.201923 -0.223075 -0.0113376 0.378323 0.224357 -0.12685 0.170002 -0.363387 0.406848 0.394422 -0.27239 -0.0180532 -0.236931 -0.462886 0.217735 -0.433676 -0.428436 -0.371314 -0.233597 -0.456693 0.435281 -0.37064 -0.338221 -0.0438657 0.47776 0.498855 -0.052147 -0.12986 0.402249 0.0942259 0.0979797 -0.486816 0.491699 -0.126392 0.30636 0.180194 -0.179677 0.287097 -0.280054 0.449119 0.108236 0.319844 0.44725 0.302771 0.00413828 -0.207316 0.30915 0.000713955 0.0364927 -0.470305 -0.161629 0.148088 0.109894 0.185484 -0.335261 -0.149129 -0.31109 -0.321711 
-0.379116 0.296838 -0.449705 0.0686819 -0.190512 -0.197775 0.369411 -0.0409711 0.0348064 -0.381222 -0.10271 0.0772271 -0.329627 0.454235 0.0250223 0.207633 0.4906 0.103809 -0.48587 0.1245 0.495331 0.0989258 -0.325251 -0.316675 0.261254 -0.219474 -0.228294 -0.273309 -0.151051 -0.298151 0.440886 -0.0390179 -0.201909 -0.232399 -0.104058 0.459325 0.240926 0.0148469 0.206627 -0.0517487 -0.331103 0.446874 0.441463 -0.458643 0.383109 -0.181424 -0.0887974 0.0404221 0.140012 -0.223399 0.38502 -0.463069 0.0674917 0.281579 0.444823 0.372097 0.338923 -0.305963 -0.142721 0.194798 -0.339128 0.444381 0.190795 0.222604 0.0908584 -0.320048 0.46926 0.38539 0.230549 -0.176912 0.176499 -0.471395 0.35298 0.440167 0.321918 0.230476 0.360509 0.229071 -0.0771832 -0.41388 0.339153 -0.26307 -0.396329 0.294671 0.449919 0.49646 -0.270352 -0.317596 0.0534233 0.19045 -0.291778 -0.197634 -0.31259 -0.472095 -0.216005 0.102558 -0.253493 0.445041 0.198607 0.260833 -0.190372 -0.53235 -0.142677 0.163548 -0.106431 0.428471 0.377076 0.0684793 0.32792 -0.0515763 -0.355936 0.399533 -0.313105 0.433347 0.0669423 -0.0485625 0.230082 0.226369 0.314844 0.469584 0.0208768 -0.427765 -0.460428 0.0281809 -0.308503 -0.0176401 -0.433856 0.153186 -0.174857 -0.366025 0.000930352 -0.188173 0.156697 -0.244532 0.378623 0.254106 -0.135583 0.313187 0.309785 0.151845 0.0699027 -0.301691 0.0281186 -0.19434 0.436125 0.336466 -0.445507 0.299977 0.0896036 0.412591 0.321006 0.331886 -0.472358 0.2376 -0.396886 -0.27735 -0.453827 0.171531 -0.0387053 0.302363 -0.314394 -0.318651 -0.309305 0.0720785 -0.394044 -0.135833 -0.0466692 -0.335749 0.246879 -0.110157 -0.309866 -0.107406 -0.428722 -0.244477 0.413064 -0.153273 -0.594986 -0.134691 -0.289027 -0.559821 -0.0286721 -0.272386 -0.446776 -0.13764 -0.41572 -0.453515 -0.20993 -0.176017 0.438309 -0.421553 -0.412618 0.0162992 -0.243498 -0.0011726 -0.315439 0.129623 -0.42996 -0.342052 0.484201 0.284637 -0.136979 0.0717919 -0.00332569 -0.0708056 -0.103783 -0.101612 -0.391146 -0.486239 0.368421 -0.120806 -0.490577 0.0676764 0.172662 0.335397 -0.0532543 0.232408 -0.101609 0.16481 0.389584 -0.118415 0.444977 0.290295 0.37068 -0.306033 -0.14668 0.306576 -0.234944 -0.362425 -0.281255 0.453187 0.126462 -0.333874 0.0985037 -0.192216 -0.240538 0.426387 -0.366274 -0.172298 0.101072 -0.278372 -0.401309 -0.243545 0.0946744 0.471381 -0.409659 -0.348113 -0.185742 0.311734 -0.518331 0.171423 -0.0360844 0.361612 0.0307865 -0.306871 0.473985 0.0435957 -0.45508 0.131841 0.321627 0.353988 -0.190725 0.179919 -0.35862 0.367901 0.277309 0.315318 0.427594 -0.299334 0.0541144 -0.0108142 -0.0329909 0.366021 -0.369978 -0.0825368 -0.0958351 -0.254174 -0.393232 -0.165157 0.105855 0.0273496 0.433336 0.272628 0.401188 0.178488 -0.313408 0.382924 0.147941 0.375704 0.0299298 0.142101 -0.160547 0.481068 -0.109702 0.253322 0.000759878 0.485273 -0.0327238 0.229242 -0.156826 -0.0945402 -0.408121 -0.159524 0.436278 0.000262206 0.143414 0.239877 -0.491067 0.231858 -0.0958565 -0.370786 -0.041971 -0.182977 0.267238 -0.0382487 0.395708 -0.4642 0.110893 -0.447936 0.0981278 -0.217517 0.0602553 -0.183539 0.485126 0.434297 0.135846 -0.406412 0.502831 -0.228229 0.406793 -0.375564 0.338541 0.0516629 0.161194 -0.457964 0.0599437 -0.273311 0.47074 0.332485 -0.0191641 0.327814 0.0905107 0.238067 0.0632394 0.0823511 0.220581 -0.244142 -0.543446 -0.273235 -0.0945932 -0.306117 0.478026 0.521219 -0.326632 0.227767 0.531181 -0.401896 0.399955 -0.511147 -0.00371065 0.0378987 -0.137733 -0.209736 0.111974 0.451174 -0.208487 0.472859 0.49811 0.207653 0.372402 -0.0837828 -0.462325 -0.0954572 -0.00369054 0.310718 0.287863 -0.352432 -0.0892133 0.12111 0.337952 0.158193 -0.11312 -0.37851 -0.240518 -0.334933 0.260393 -0.411591 -0.0820331 0.0793437 0.455618 0.225847 -0.0405112 0.0111267 0.0972167 -0.286982 -0.0408476 0.308931 0.474743 -0.334459 0.0439628 0.0865376 0.332943 -0.402632 -0.00639883 -0.282912 -0.572729 0.17982 0.55106 0.29833 -0.261823 0.0699923 0.113823 -0.0657198 0.15563 0.423829 -0.226194 0.0676934 0.169673 0.0339293 -0.067329 0.252384 -0.154653 0.199515 -0.133753 -0.203347 0.39545 -0.46469 -0.201576 0.352861 0.417656 -0.47991 0.0659143 -0.549942 -0.566127 0.356154 -0.0425832 0.0482277 0.134366 -0.267853 0.134897 -0.427204 -0.177596 -0.259182 0.231808 -0.0470519 -0.302224 -0.0956198 0.102097 0.0228788 -0.194235 0.180904 0.300016 0.453278 0.216911 0.484294 -0.185962 -0.498228 -0.253488 0.288359 0.190898 0.352425 0.0485292 0.497007 0.359371 0.175145 -0.205784 -0.211771 -0.565346 0.346982 -0.388264 0.0406914 -0.369134 -0.290054 -0.235067 0.235051 0.0569982 -0.280446 -0.203024 -0.326183 0.294442 0.427442 0.248439 -0.155309 -0.140414 -0.528538 0.401683 -0.437049 0.143311 -0.0525516 0.055616 0.697942 0.482737 0.014169 -0.124371 -0.450975 0.187781 0.160302 -0.569569 -0.229061 -0.152245 -0.516195 0.0256648 0.318492 -0.278509 -0.288883 -0.208489 0.0220047 -0.466307 0.0183402 0.0494727 0.112063 -0.501674 0.0691191 0.239449 -0.210526 0.297638 -0.493522 -0.185916 0.119275 0.263885 -0.115367 0.140081 -0.0764068 0.0507047 0.133635 -0.383253 0.405937 -0.530134 0.0714438 0.00452743 0.343842 -0.319602 0.232918 -0.391171 -0.308109 0.341984 -0.423596 0.079603 -0.150618 -0.313455 -0.0343182 0.201209 0.112958 0.323795 -0.230562 -0.359987 0.364925 -0.40392 -0.319472 -0.149506 -0.297423 -0.576913 -0.50801 -0.376574 0.292683 -0.397742 0.292482 0.332175 -0.397406 -0.0129117 -0.15547 -0.0840937 0.147868 0.435328 0.136137 0.199279 0.110149 -0.0254772 0.088759 -0.519568 -0.40987 -0.385628 0.219095 0.444962 0.32286 -0.231813 -0.470359 -0.152415 -0.408209 -0.379308 -0.170292 -0.270965 -0.407145 0.356868 0.373811 -0.0355628 -0.313765 -0.0870233 0.0463596 -0.248242 0.150567 0.395114 -0.138237 -0.293543 0.165701 -0.3604 -0.0236754 -0.212084 0.177523 -0.321097 -0.0335918 -0.508781 -0.0603176 -0.0465974 0.230145 -0.433581 0.364084 0.0750008 -0.092987 0.309092 0.222356 -0.487216 -0.0429196 -0.364807 0.0688798 -0.378008 0.148335 0.297244 0.325039 0.343927 -0.109116 0.160374 -0.114407 -0.173462 0.213662 -0.454864 0.457677 -0.22528 -0.189616 0.315124 -0.376913 -0.499442 -0.476645 0.343509 -0.11751 -0.324761 0.226198 0.0357248 0.0384809 0.235795 -0.261474 0.202353 -0.132464 0.219907 -0.0157323 0.107257 0.338008 -0.213388 -0.311822 -0.300283 -0.32911 0.173001 0.516421 -0.0635169 0.0694554 -0.271797 -0.391556 -0.0764452 -0.319513 -0.0723742 0.0338809 0.335852 0.313042 0.386265 -0.0753832 -0.269515 0.215121 0.376898 0.421193 0.165051 0.163898 0.159576 -0.434721 -0.475219 -0.468719 0.0860166 -0.495514 0.0620889 0.257969 -0.204275 -0.437715 -0.215859 0.00120151 0.34658 -0.386638 0.283032 0.251611 -0.155616 -0.168464 -0.251078 0.452806 -0.250641 0.325 0.0549999 0.086353 0.340794 0.0649261 0.0620138 -0.27332 0.473487 0.26693 0.495086 0.353847 -0.458242 0.00301742 0.0912563 0.2812 0.298565 0.297748 0.503703 0.126345 -0.0738984 0.0518042 -0.168629 -0.160516 0.138663 -0.173992 0.454053 0.42327 -0.0392847 0.341801 -0.239719 0.313108 -0.0678462 0.367118 -0.0557597 0.462984 -0.20318 -0.357173 0.499207 0.436155 -0.459777 -0.316004 -0.216699 -0.293868 0.376282 0.341395 0.305627 0.175867 -0.0902521 0.359429 0.508559 -0.231736 -0.0947487 0.30173 -0.191094 -0.370143 0.332666 0.283206 -0.323447 -0.259663 0.202187 0.0413391 -0.350173 0.445355 -0.358669 0.45941 -0.174612 -0.34872 -0.250755 0.18688 -0.196158 0.289879 -0.0575743 -0.206195 -0.0967829 -0.167218 0.0411124 -0.377676 0.192562 0.287788 -0.102145 0.0269874 0.400265 -0.424432 -0.169808 0.135147 0.232025 -0.248799 -0.279621 -0.167769 0.114704 -0.130085 -0.0921506 0.0447554 
-0.102954 0.00590533 -0.1816 0.054857 -0.450194 0.273614 -0.489166 -0.0306558 0.395321 0.277123 -0.0394452 -0.000564605 -0.111605 -0.111998 0.349617 -0.287717 0.485382 -0.243004 0.149556 -0.0904111 -0.363704 0.476226 0.274804 0.289087 0.421873 -0.220725 0.0915098 -0.4541 -0.12389 -0.294946 -0.440153 0.0695975 -0.479393 0.119102 0.293922 -0.104798 0.148051 -0.491733 -0.180512 0.0549926 0.3567 0.425316 -0.211169 -0.0064289 -0.0679295 -0.443072 -0.486526 0.238925 -0.451464 -0.260192 0.464174 -0.109021 -0.184164 -0.103595 0.153523 0.187948 0.260704 0.234489 0.0763913 -0.257225 0.222118 -0.311617 0.0676586 -0.36117 0.225919 -0.0263292 -0.163716 0.0329935 -0.164324 0.106125 -0.152098 0.304405 0.441704 -0.173105 -0.428243 -0.218301 0.398208 0.050137 0.138359 -0.393069 0.397156 0.414003 -0.471953 0.128895 -0.304651 -0.195517 -0.195028 0.059734 0.308065 -0.31669 0.221542 0.0313754 -0.415046 -0.183393 -0.225913 0.0779981 0.370521 -0.245383 0.0510479 -0.285078 -0.11228 0.223565 0.0609612 0.281112 -0.0246271 0.432466 0.144346 0.487727 -0.276546 0.0843454 0.232521 0.00401318 -0.286737 -0.0013607 -0.0545721 0.0683055 0.191179 -0.301648 -0.0371228 -0.111905 -0.24583 -0.30531 -0.0576437 0.256961 -0.530978 -0.51778 0.248651 0.315613 -0.13657 -0.35441 0.442285 0.469424 -0.26685 -0.442473 0.377949 0.375342 0.00905648 0.447241 -0.450472 -0.246696 -0.371334 -0.0285501 0.24308 0.408002 -0.174067 -0.277239 0.178502 0.364206 0.305995 -0.452332 -0.27033 -0.563078 -0.572845 -0.149939 -0.394682 -0.342727 -0.287476 -0.148315 -0.22678 0.345598 0.397449 -0.0814259 -0.392761 0.348525 0.186388 -0.453026 0.250494 -0.17394 0.298456 0.0385599 -0.407846 0.369504 -0.0988468 -0.534926 -0.0810974 -0.516412 -0.336007 -0.133006 -0.269905 0.154871 0.3857 0.0575793 -0.123729 -0.45579 0.100405 0.00229421 -0.487037 -0.409131 0.118961 -0.456565 0.0335574 -0.00074116 -0.475836 -0.0159728 -0.170448 0.355806 -0.028489 0.00332812 0.431913 -0.409339 0.157804 0.299416 -0.108949 0.376956 -0.440961 0.0782271 -0.221508 0.0523997 0.105068 -0.116844 -0.0160036 -0.18182 -0.13483 0.178154 -0.0123761 0.0616868 -0.373714 -0.214231 0.0291081 0.112803 0.0207211 -0.362684 -0.281981 0.400407 -0.0548311 0.0642118 0.405087 -0.0368145 0.0350781 0.210413 0.0229859 0.434977 -0.229039 -0.248167 0.431795 0.405649 -0.233731 0.462195 0.124303 0.107582 0.14119 -0.28463 -0.275519 -0.553803 0.0432744 -0.241721 -0.0136439 -0.243253 0.246642 -0.102095 -0.0641877 -0.161021 0.246474 -0.357318 0.227103 -0.149798 0.365747 -0.484924 0.498297 -0.0364938 -0.251662 0.409257 -0.10205 -0.0220353 0.585667 0.129575 0.182388 -0.381369 -0.53522 -0.164443 -0.0934629 -0.258307 -0.0727144 0.343707 -0.134662 -0.422881 -0.0539284 -0.239157 0.173253 0.023293 0.0578322 -0.0175669 0.287785 0.214637 0.31491 -0.190299 0.392898 0.495605 0.325417 0.00544273 0.3776 0.290499 -0.0541257 0.395006 0.440536 0.0474128 -0.329189 -0.291125 -0.299858 0.272772 -0.353846 -0.107554 0.348944 0.259271 0.0651001 -0.362393 -0.252728 -0.22901 0.10555 -0.137353 -0.112473 -0.228184 0.409317 -0.0338252 0.116457 0.00769591 -0.0382206 -0.00350161 0.354079 -0.175361 0.230264 0.369055 -0.435788 -0.179895 -0.029658 0.197094 0.302646 0.33413 -0.11408 -0.300718 0.0693874 -0.20715 0.465585 0.225031 0.418434 -0.197463 -0.269611 0.25656 -0.384444 -0.294276 -0.280742 0.417513 -0.160166 0.62498 0.237168 0.624652 -0.0384495 0.605053 0.275482 -0.0579911 0.398044 0.224277 -0.254856 0.18762 0.286537 -0.0708533 0.401654 0.286457 -0.123706 0.536014 -0.068998 0.24054 -0.476487 0.20869 -0.14229 0.297252 -0.15806 0.0899117 -0.0450419 -0.287832 0.373034 0.136401 -0.0369449 -0.032733 -0.367267 0.312468 0.492801 -0.412925 -0.432163 0.311564 0.329098 -0.307419 -0.0248479 -0.0939892 0.0331008 -0.271465 0.583785 -0.208081 -0.224631 0.391738 0.40382 0.0445294 -0.412656 0.384895 -0.224895 -0.405482 -0.267427 -0.42833 0.257929 0.321259 0.239366 0.209788 0.367971 -0.425104 -0.186697 -0.141061 0.0365658 0.355991 -0.246237 0.0290701 -0.104637 0.121188 -0.236232 -0.0842352 0.192897 -0.0163103 -0.205521 0.445667 -0.414368 -0.352415 -0.378811 -0.223777 0.0556592 -0.435561 -0.268486 0.359213 -0.239507 -0.0691333 0.0567621 -0.0852695 -0.491013 0.255721 -0.282779 -0.433825 -0.199023 -0.112179 0.277839 0.1372 -0.106905 -0.339403 -0.015114 -0.0372194 0.109024 -0.0674566 -0.264568 -0.269246 -0.292643 -0.23527 0.247581 -0.491789 0.367611 0.0679799 -0.099014 0.293191 -0.359611 0.183793 -0.046216 -0.334675 0.527448 -0.404755 0.12804 0.122965 0.406669 0.0629608 -0.361593 -0.582889 0.0291432 0.372682 -0.190585 0.0001855 0.237247 0.451992 0.0322317 -0.134591 -0.376353 0.0925375 0.100696 -0.00627908 0.0220517 0.00602066 -0.503425 0.216659 0.190008 -0.38779 -0.0800819 -0.0767992 -0.00789394 0.153217 -0.434937 -0.365498 -0.233898 0.050952 0.273018 0.302164 -0.251204 0.188679 0.389404 0.181283 -0.471148 -0.225905 -0.0200704 0.183923 -0.307447 0.326485 0.414662 0.135374 -0.00436526 -0.098967 0.153628 0.284455 -0.555079 0.0476596 -0.388301 -0.310137 0.0149966 0.520316 -0.0488056 0.225169 0.133061 -0.373417 0.161535 -0.248638 0.489902 -0.368307 0.323668 0.0957799 -0.274858 -0.23198 0.0164059 -0.520076 -0.333969 0.275785 -0.0102084 0.301109 0.378607 0.404691 -0.339553 -0.559962 0.159868 -0.221723 -0.31755 0.468403 0.476701 0.418045 -0.0506011 -0.124615 0.312433 0.324946 0.214535 0.137038 0.0420259 -0.0180409 -0.0306829 -0.353694 0.0540527 -0.0737536 -0.480626 -0.354742 0.215976 0.20574 -0.408536 0.00565576 -0.287937 0.175077 -0.284428 0.0139034 -0.507843 -0.484376 0.268361 0.176193 -0.244477 -0.0663363 0.500521 0.203462 -0.0248927 -0.440542 0.448302 -0.267923 -0.0319375 0.316415 -0.110321 -0.203746 -0.228399 -0.153759 -0.31589 -0.0488599 -0.458356 -0.0560795 -0.00169125 -0.368281 0.169335 0.194906 -0.577564 0.274718 -0.276019 0.0679234 -0.488034 0.0577863 0.30716 -0.101483 -0.286185 0.489681 0.481549 -0.0705446 0.034133 -0.315064 -0.168236 -0.419953 0.196292 -0.207662 -0.233117 -0.0966554 -0.302042 0.302933 -0.0153924 -0.136281 0.420378 0.0616023 0.0727194 0.0897733 -0.443096 0.231748 0.0713566 -0.538349 -0.194481 0.225691 0.141982 0.335823 0.259875 -0.237518 -0.0187819 0.496468 -0.110552 -0.195804 0.0310289 0.271761 -0.3038 0.219709 -0.458398 0.299191 0.017787 0.300626 0.166486 0.341272 -0.495331 -0.47055 -0.306915 -0.380974 -0.409138 -0.38591 0.133187 -0.473552 -0.469881 0.431248 0.142571 -0.213052 -0.0663264 -0.102204 0.0281863 -0.158438 -0.224421 -0.153965 -0.278433 -0.257114 -0.292062 -0.123447 -0.157232 0.0296873 -0.0640824 0.488314 -0.390929 -0.223899 -0.35226 -0.439787 -0.187326 -0.144858 0.476217 0.378398 -0.115268 -0.0529258 -0.441262 0.432562 0.213931 -0.344248 0.264771 0.505704 0.500244 0.0157642 -0.350569 0.354491 -0.227065 0.0508371 0.202555 -0.0788722 0.0432956 -0.13401 0.108688 -0.357344 0.302195 -0.229484 -0.166768 0.331324 0.0161824 0.210645 0.0247702 0.494051 -0.310648 0.20926 0.0258504 0.26661 -0.146162 0.24071 0.0183427 -0.0684212 0.23006 -0.165154 0.0018037 0.0591625 -0.183859 0.320008 0.427863 -0.192879 -0.466364 -0.159514 0.297023 0.392591 0.18261 -0.439421 -0.286065 0.301782 0.171438 -0.16744 0.0318087 0.420303 0.250403 -0.431586 -0.345533 -0.0736987 0.505908 0.186327 0.412532 -0.157139 0.109483 -0.304059 0.522496 -0.0545958 0.464668 0.0209494 0.438567 -0.438881 0.284424 -0.489009 0.0378692 0.0546831 0.00123602 0.292749 0.156606 0.453124 0.09035 -0.474517 -0.102313 0.0934645 0.0347261 -0.261595 0.237026 -0.117329 0.12998 0.496062 -0.406073 -0.325691 -0.0311492 0.0983793 0.414979 -0.337834 -0.152171 0.388226 0.258987 0.211712 -0.0375758 0.46093 0.48648 0.0204626 -0.458617 0.240135 
-0.0318461 -0.0152135 -0.187185 -0.244865 -0.0312662 -0.253075 0.0337382 0.173727 -0.341609 0.273156 0.374447 0.278497 0.309111 0.388759 -0.0647145 -0.461516 -0.29635 -0.324244 -0.319727 0.433103 -0.210837 -0.363186 -0.43173 0.184042 0.105914 -0.465667 -0.337703 -0.448058 0.0229347 -0.191183 0.49884 -0.146382 0.311151 0.483703 0.498168 -0.144014 0.0860552 0.46297 -0.303201 -0.296363 -0.349687 0.12712 -0.416431 -0.464392 0.269334 0.13574 0.32129 -0.0513886 0.407572 -0.161094 0.1317 -0.0406389 0.45938 0.206992 0.13094 -0.370235 -0.491791 -0.313166 0.392269 0.00282294 0.138715 -0.115469 -0.482061 -0.489577 -0.161677 0.486044 -0.497677 -0.492501 0.0163069 0.317096 0.163673 0.0881403 0.178468 -0.0308799 -0.0432829 -0.134313 0.290333 -0.149314 0.353306 -0.225203 -0.197164 0.109814 -0.284967 -0.275384 -0.491577 0.353542 -0.174216 0.0949279 -0.39573 -0.497994 -0.0982906 -0.18729 0.0862465 -0.258618 0.368223 0.149871 -0.0249259 -0.0471012 0.169656 -0.10358 0.422351 -0.43595 -0.0574054 0.104968 0.226429 0.159832 -0.296461 -0.0873776 -0.296049 -0.20722 -0.495789 -0.151601 -0.354549 0.470061 -0.264763 0.0640442 0.180662 -0.406692 0.352517 -0.268373 0.190191 -0.154325 -0.152728 0.258805 0.266273 0.390951 0.208707 0.476631 -0.204422 -0.117367 -0.228407 -0.480277 0.143549 -0.00490997 -0.0666563 0.286447 0.40482 0.0696781 -0.0718318 -0.406278 -0.00541705 -0.248558 -0.347163 -0.218136 0.34792 -0.0670615 0.404 -0.405214 -0.121608 -0.023908 -0.184453 0.463742 -0.300248 -0.415398 -0.241381 -0.12393 0.231076 0.397135 -0.348448 0.0348815 0.0723792 0.32089 0.474103 0.124567 0.148885 -0.0841976 0.441977 -0.0445723 -0.00544757 0.111469 -0.352687 0.111897 -0.194181 0.0490106 0.0854852 -0.0296447 -0.0198028 -0.458523 -0.169713 0.196463 0.126171 0.039978 -0.308687 -0.00748045 0.256322 -0.301606 0.178983 -0.415448 -0.235274 -0.116461 -0.310891 0.0939754 0.187573 0.318442 0.343499 -0.252035 -0.429533 0.168844 0.180442 0.215686 -0.0685484 -0.271389 -0.215312 -0.0463832 -0.0609169 -0.465627 0.479466 -0.435913 0.230567 0.336302 0.0273594 0.0712469 -0.294085 -0.00636366 -0.00839426 -0.122345 -0.350082 0.125683 0.436885 0.450769 -0.310127 0.430055 -0.301279 -0.287537 0.188375 -0.0414104 0.348225 -0.295806 -0.300844 0.133419 0.275632 -0.041357 -0.189513 0.386941 0.148286 -0.148885 0.30763 -0.433191 -0.0576239 -0.435888 -0.433007 -0.48032 -0.0192976 -0.318812 0.425396 0.384278 -0.0425953 0.340161 0.274995 -0.139187 -0.164958 -0.0936967 0.0602006 0.192083 0.474185 -0.271479 -0.2201 0.366558 0.378544 -0.398805 -0.0167514 -0.297497 0.222818 -0.196007 -0.167332 -0.424824 -0.506512 -0.0917792 0.115577 0.13671 0.0025377 -0.321483 -0.0591519 0.135204 0.482637 -0.219784 0.37071 0.461427 0.377565 0.470356 0.217829 -0.0902789 -0.471608 -0.395118 0.0442603 -0.152766 0.231432 -0.220628 0.327949 -0.321089 0.184867 0.263169 -0.0241692 0.303588 -0.000772448 0.292543 0.0122089 -0.0942837 -0.512556 0.431888 -0.432994 -0.362039 -0.432274 0.471832 0.12328 0.418626 0.29345 0.366549 -0.324824 -0.129693 0.334408 0.0670237 0.186066 0.3214 -0.372713 -0.468893 -0.00737898 -0.40978 -0.459971 0.210817 -0.198977 0.073971 -0.472109 -0.0189677 -0.428196 -0.00554435 -0.0366709 -0.385593 -0.161743 -0.109435 -0.341 0.0379367 0.106761 0.052241 -0.0806443 0.180599 0.396695 -0.480338 0.0359777 -0.26362 -0.321757 -0.139812 0.393169 -0.231911 -0.425531 0.161542 0.0851527 -0.128016 0.358488 0.168415 -0.498434 0.359898 0.027299 -0.142519 0.00685177 0.125001 -0.410085 0.205366 -0.173388 -0.234801 -0.474346 0.117103 0.430039 -0.41932 0.291528 -0.116013 -0.205235 -0.0900759 -0.211212 -0.312507 0.279481 0.48343 -0.127194 0.174273 -0.54157 -0.0769496 0.392429 -0.442695 -0.109559 0.294754 -0.0523927 -0.0638292 -0.471639 0.120371 0.243511 0.207902 0.100863 0.411786 0.104095 -0.0404572 -0.272318 -0.46828 -0.0485397 0.230065 0.182838 0.253697 -0.128438 0.180874 0.327484 -0.477902 -0.0469655 0.157129 0.443024 0.431287 -0.116621 0.127416 -0.047852 -0.174773 -0.533562 -0.265758 -0.131219 -0.431919 0.487203 -0.364138 0.422289 0.222767 0.425993 0.388216 0.214202 -0.147788 0.352321 -0.162648 0.242086 -0.499538 -0.348244 -0.106109 0.184585 -0.492824 -0.269646 -0.51232 0.0145517 -0.37773 0.184186 0.236702 -0.0511015 -0.177801 -0.371853 -0.357885 -0.308396 0.43126 0.0787796 -0.209126 -0.329338 -0.274199 -0.078232 -0.410648 0.416034 0.211892 0.236229 -0.275201 -0.321068 -0.258548 -0.27617 -0.0636984 0.336073 0.0229624 -0.196546 -0.224211 -0.431232 0.0339002 -0.107367 -0.0783966 -0.152833 -0.275355 -0.434683 0.352805 0.138343 0.0768902 -0.00301986 -0.0272328 -0.268067 0.403762 0.220822 -0.0647867 -0.0670403 0.162402 0.395047 -0.323389 0.161822 0.408487 -0.0194507 -0.439566 -0.277773 -0.354245 -0.248967 -0.143741 0.33706 0.192656 0.226736 -0.380484 -0.526593 -0.054501 -0.333659 0.194434 0.216602 0.00418877 -0.355016 -0.250916 0.0750814 -0.159209 0.0967498 0.0296478 -0.322845 0.294841 -0.42761 0.410581 0.191059 -0.460934 0.194524 0.297954 -0.29256 -0.0964483 -0.391695 0.240647 0.436171 0.379044 0.118257 -0.213164 0.105754 0.0315522 -0.497034 0.220551 -0.113119 -0.516311 0.330455 0.393092 -0.189621 0.429832 -0.282433 -0.166115 -0.127851 0.118191 0.203879 0.23278 -0.489885 0.418712 0.466516 0.489394 -0.124591 -0.220703 -0.258934 0.357712 -0.515531 -0.446197 -0.270718 0.209467 -0.0540185 0.162731 -0.26626 0.430853 -0.196574 0.182298 -0.263366 0.342058 -0.313066 0.236941 0.419152 0.214647 -0.220135 -0.248067 -0.286279 0.0222937 -0.473892 0.192128 -0.238811 -0.457227 -0.388691 -0.154196 -0.142857 0.441717 0.315016 0.101177 -0.352059 0.370331 0.425282 0.084947 -0.332835 -0.077903 0.184395 0.390187 -0.397278 0.0108637 0.0133377 0.122958 -0.273672 -0.237374 -0.374176 0.0271129 -0.412961 -0.110218 -0.290717 -0.4585 0.249973 -0.225125 -0.0656916 -0.398463 0.327018 0.410463 -0.236623 -0.532669 0.431439 -0.318538 -0.165047 0.0620144 -0.280017 0.3587 -0.186793 -0.0546045 0.34488 -0.178739 -0.0355825 -0.292287 -0.163523 0.220507 -0.310422 0.0890685 -0.0639821 0.353664 0.439686 0.0219373 -0.316653 0.18676 -0.428645 0.12064 -0.437892 -0.45291 -0.113143 0.196302 -0.298615 -0.0569379 0.238143 -0.0248016 -0.487537 -0.428286 -0.418616 0.431144 -0.174319 -0.219844 0.241564 0.274716 0.281626 0.364618 0.0301392 0.0961794 -0.220847 0.377407 0.269365 0.148322 -0.497405 -0.00211369 -0.265116 -0.365471 -0.319263 0.375929 -0.273459 -0.403255 -0.410317 -0.0875708 0.159117 0.133055 -0.208866 -0.344374 -0.393363 -0.227609 -0.00406443 0.437028 -0.456193 0.204435 -0.0077281 -0.312198 -0.184957 0.107868 -0.247948 0.112445 0.0700111 -0.171365 -0.0842474 0.29364 -0.442329 0.11979 0.199452 -0.40159 0.0184866 -0.431387 -0.253902 0.334352 0.029766 -0.0725118 -0.0677323 0.39984 0.331357 -0.230606 -0.391951 -0.415587 -0.159955 0.0394738 0.481806 -0.276079 -0.278466 -0.244011 0.468627 -0.310846 0.0338575 0.236115 -0.345401 -0.377084 -0.346884 0.442275 -0.12007 0.312967 -0.23112 -0.387866 0.479587 0.132251 -0.244677 -0.159206 0.179534 0.368349 -0.396661 -0.286389 -0.249213 -0.457253 -0.0978157 -0.230325 0.367233 0.358638 0.378903 -0.207144 0.251366 -0.0988342 -0.00355542 -0.285333 -0.366907 -0.0980171 -0.207709 0.224561 -0.458846 0.486452 0.255522 -0.243276 0.46649 0.319002 -0.467893 0.012258 0.412738 -0.476229 0.215937 -0.334214 0.407574 0.363769 0.0611928 0.431337 -0.0519272 -0.029313 0.320368 0.110279 0.449767 0.125355 0.0511032 -0.187796 0.225852 0.458159 0.149665 -0.0143251 0.0190654 -0.0241064 0.39107 0.419642 -0.377976 0.326565 0.261377 -0.128442 -0.385529 -0.296402 -0.139228 0.479455 -0.243107 -0.193835 -0.335158 -0.386283 0.0591601 -0.253502 0.413846 0.322932 
0.0650502 0.322443 -0.0772271 0.0331584 0.381405 -0.442228 0.0874813 -0.344874 -0.0184484 -0.0843684 -0.131062 -0.244377 0.316127 0.0917841 -0.462462 -0.0502792 -0.239036 -0.205252 -0.041612 0.169973 0.435087 0.418332 0.198843 -0.0312967 -0.0818049 0.012711 0.239555 -0.490112 -0.0995056 0.461028 0.0702689 0.406735 0.294977 0.267022 -0.0482016 0.0609664 -0.156056 -0.139685 0.124977 -0.33927 -0.248905 -0.174429 -0.251693 0.492682 0.370243 -0.0381749 0.345469 -0.275449 0.481297 -0.422303 -0.45642 0.315394 0.186392 -0.0702384 0.383938 0.208243 -0.0442061 0.209464 -0.0138692 0.462616 -0.144524 -0.0150002 -0.152849 0.482763 0.487675 -0.49514 -0.443832 -0.00230543 -0.324405 -0.231508 0.206756 -0.0506648 0.423608 -0.228676 0.288039 -0.0540167 0.183652 -0.170529 0.334515 0.434602 -0.0395979 0.390866 0.118275 0.252159 0.284448 0.238914 -0.337701 -0.291073 -0.413293 0.495313 -0.142098 -0.138464 0.00459381 0.327991 -0.0316808 0.133486 0.151388 -0.229945 -0.207033 -0.069697 -0.127405 -0.449362 -0.21601 0.424358 -0.455228 0.367845 -0.105381 0.146194 -0.0852438 0.469389 0.430692 -0.448271 0.032548 -0.0184789 -0.309503 0.206069 0.301814 -0.121718 -0.312707 -0.235069 0.189549 0.00960649 -0.271463 0.394377 -0.400712 0.0422999 0.0714221 -0.270903 0.453525 -0.167091 -0.365598 0.235386 -0.410539 0.00385016 -0.295071 -0.241183 0.311702 0.259024 -0.119467 0.404935 -0.121693 0.187429 -0.0337374 0.329393 0.189799 0.132741 0.183312 -0.299774 -0.00674799 -0.0511419 -0.439477 0.491112 -0.180961 -0.0792959 0.357036 -0.000776399 0.0150318 0.182053 0.176514 0.394321 0.186077 0.441582 -0.118739 -0.502842 0.0947455 0.447148 0.243081 0.436125 -0.409604 0.124348 0.465644 0.317653 -0.448352 -0.165484 -0.296114 -0.159885 -0.369873 -0.294564 0.452253 0.520905 0.199345 -0.0376955 -0.3499 -0.351773 0.0816468 0.350181 0.341871 -0.163178 -0.259702 0.299759 -0.321627 0.0185137 -0.177245 0.47724 0.415007 -0.24422 -0.0757012 -0.23641 0.060713 -0.309974 -0.0990395 -0.305554 -0.186285 -0.192548 -0.385502 -0.191079 -0.23127 -0.18956 0.00715022 0.380252 0.108921 -0.291945 -0.00949068 0.0930468 -0.153561 -0.135 0.329651 -0.418572 0.365427 -0.464429 -0.418671 -0.3623 -0.445385 0.43525 -0.424589 -0.204128 -0.150223 0.146521 -0.341245 0.35577 0.275699 -0.400169 0.441907 -0.305181 -0.1179 -0.0996014 -0.310023 -0.104842 -0.295769 -0.0360862 -0.00757004 0.220654 -0.128682 -0.430563 0.481832 -0.0105271 -0.468616 -0.292173 -0.33905 -0.105306 -0.101258 -0.112903 0.407441 -0.17871 -0.0409341 0.0222446 0.157212 0.278344 -0.179925 0.214556 0.0855233 0.103543 0.26092 -0.170612 -0.0704247 -0.132619 -0.312556 0.208448 -0.0729595 -0.350513 0.441894 0.50739 0.471774 -0.0010505 0.293939 -0.138733 0.157296 -0.153219 0.272526 0.251151 -0.325324 -0.443636 0.298016 -0.0909437 0.170631 0.0359827 -0.401203 0.0958826 0.0210676 -0.20621 -0.292275 -0.392598 0.0768895 0.491742 0.0366989 0.162233 0.00835007 0.0670237 -0.0119706 0.25768 0.206579 -0.077995 0.375546 -0.284991 0.336033 -0.359208 -0.288999 0.373521 0.457794 0.403297 0.228471 -0.481734 -0.328781 -0.125464 -0.118537 -0.0142287 0.0476182 -0.0332349 0.45084 -0.37849 0.249324 0.368336 0.0620913 0.575691 -0.138011 0.536766 -0.197262 -0.219393 -0.395356 -0.0017701 0.535753 0.12673 -0.136925 0.205719 0.202232 0.475878 0.0306087 0.223498 -0.383177 0.399674 0.071982 -0.103613 -0.118782 0.266169 -0.385664 0.168109 -0.215263 -0.299855 0.380084 -0.044331 0.136197 -0.404847 -0.295068 -0.0213598 0.0843192 0.254825 0.461619 -0.397004 0.221499 -0.100066 -0.374384 -0.401969 -0.00623011 0.107918 0.377864 -0.339608 0.242284 -0.407839 -0.364219 -0.303371 0.228444 0.39917 -0.180125 0.082268 0.0665105 -0.0359273 0.117745 -0.116806 0.270016 0.142336 -0.25059 -0.221095 0.42692 0.462524 -0.391248 0.518317 -0.0251902 0.345474 0.405559 -0.162395 0.438244 0.477347 -0.418546 -0.145652 0.024831 -0.18856 0.285452 -0.219005 0.0382306 -0.437558 -0.102721 0.0586766 -0.385163 0.00815226 -0.378382 0.327886 0.262533 0.141652 0.574639 0.425317 0.231986 0.324761 -0.385257 -0.327008 -0.387558 -0.327388 0.118427 0.0839889 -0.147479 -0.250629 0.295251 -0.105731 0.0468153 0.263307 -0.451686 -0.347617 0.0840616 0.0901692 0.324182 -0.3762 0.46549 -0.481979 0.118349 0.41057 0.030279 0.505358 -0.226953 0.488447 0.0483109 -0.307817 -0.259948 0.149001 -0.419493 -0.230797 -0.17609 0.480616 0.355404 0.412046 0.0258644 -0.150624 -0.167306 -0.321407 -0.18208 -0.139565 -0.0340513 -0.224779 0.310268 -0.0985893 0.403353 -0.0922632 0.259169 -0.18239 0.0687039 -0.248644 0.529057 -0.124472 0.347584 0.0188238 0.377224 -0.176997 0.499889 0.501009 0.223789 -0.477167 0.150635 0.298366 0.439543 -0.275443 -0.142802 -0.335923 -0.317414 -0.10101 -0.152314 -0.383878 -0.153133 0.29551 0.364905 0.121097 0.173765 -0.412413 0.392929 -0.141701 0.291406 -0.417321 -0.382416 -0.0247551 -0.341701 0.428826 0.339461 0.100245 -0.114396 0.277643 0.227559 0.361541 0.412534 0.183339 -0.247917 -0.0447517 -0.464436 0.288631 -0.387438 0.173948 0.10008 0.26774 -0.42162 0.152117 0.319415 0.399932 0.0980134 0.536159 0.365668 -0.167684 0.262496 0.538066 0.442116 0.423938 0.150817 -0.274643 -0.113033 0.316954 -0.0539633 -0.204732 0.0448164 0.382378 0.177802 -0.322147 0.163585 -0.362244 0.0180408 0.0647403 0.32617 0.508337 0.41231 0.36327 -0.0417262 0.209167 -0.0779673 0.492419 0.566123 -0.0303064 0.320267 -0.238114 0.457866 0.496655 -0.082996 -0.169632 0.116618 -0.303985 0.474457 -0.406221 0.355251 -0.239226 -0.169853 0.205837 -0.435353 0.0898 -0.299776 -0.317151 -0.0241076 0.348181 0.406232 0.195517 0.291433 0.493518 -0.27053 -0.320709 -0.311891 -0.0718104 0.44625 -0.233269 -0.261081 0.0533069 0.433528 0.40335 -0.0569357 -0.175567 -0.449415 0.144882 -0.122913 0.128382 -0.449145 -0.2978 -0.307081 -0.0296779 -0.382638 -0.214411 0.314464 -0.194607 0.463267 0.372325 0.156836 0.0554596 0.493564 0.307244 -0.018476 -0.358532 0.108275 0.00497928 0.12782 -0.44142 -0.293773 -0.332063 0.466301 -0.426331 -0.466916 -0.0497601 -0.127216 -0.103442 0.0095595 -0.0533448 0.346763 -0.00673221 -0.172441 0.0372712 0.207484 0.114168 -0.27547 0.228798 0.426126 -0.319788 -0.295719 0.523143 0.453306 0.212283 0.45536 0.425465 0.091255 0.0467948 -0.186324 0.357267 0.083729 0.46576 0.21295 0.0658137 0.386563 -0.204459 -0.0727667 -0.458374 -0.0725626 -0.148412 0.109178 0.0531278 0.330061 0.0471014 0.051553 0.286223 -0.0974112 -0.440109 -0.339732 -0.450422 0.0413482 0.144166 -0.123795 -0.289346 0.500054 -0.368318 -0.277123 0.141102 -0.422464 0.284617 0.353576 0.357418 -0.146382 -0.0785699 0.309963 0.085417 0.289954 -0.461124 0.375147 0.139004 0.458359 -0.153558 -0.458386 -0.472529 -0.210621 -0.30383 -0.412875 0.0838983 0.442067 -0.436506 -0.317425 0.0513714 -0.372601 0.390975 0.0204965 0.306575 0.444275 -0.0448171 0.427696 0.164113 0.484924 0.457366 -0.339348 0.413089 0.39667 0.242429 0.269609 0.155674 0.136558 0.161151 0.04874 0.501239 0.502343 0.155588 0.0100337 -0.190537 -0.10385 -0.241777 -0.0417827 -0.355847 0.0770676 0.454452 0.0289622 0.286792 -0.306365 0.0341596 -0.479284 0.463561 0.145833 -0.087817 -0.362209 0.493927 0.0058201 0.191837 0.081769 -0.268653 0.344228 -0.213106 0.274775 -0.0034803 0.0661053 -0.414845 -0.462363 0.138731 -0.316135 -0.0982004 -0.0931254 0.452139 -0.139095 -0.371479 0.273425 0.125288 -0.179645 -0.344478 -0.131275 0.133106 -0.0521409 0.22042 0.130604 0.081103 0.0923032 0.253412 0.337711 0.426712 -0.498642 -0.346463 0.371047 0.298835 -0.017969 -0.0626898 0.399109 -0.429054 0.29669 0.142863 -0.254127 0.336579 0.351964 0.437545 -0.22148 0.476059 0.184103 0.275231 -0.000259399 0.400479 
0.271966 -0.452666 0.219077 -0.292322 0.237815 -0.362545 0.0344402 -0.142201 0.438322 -0.234733 0.418241 -0.460387 0.488951 -0.461942 -0.31216 -0.116535 0.251305 0.113178 -0.357387 0.175375 0.315058 -0.121021 0.147938 0.229911 -0.495544 0.0582446 -0.052263 0.0773492 0.442228 0.142781 -0.0128941 0.121387 -0.299147 -0.436125 0.0259747 0.425305 -0.424969 -0.493902 -0.176302 0.275316 -0.00336168 0.267289 -0.322062 -0.30666 -0.354944 0.0765012 -0.39826 0.0379987 -0.242591 -0.228867 -0.0914068 0.361676 -0.305109 0.251946 -0.492706 -0.329768 -0.231254 0.0876644 -0.341694 -0.247581 0.387444 0.224771 -0.49444 -0.269426 0.0383965 0.176087 0.148542 -0.011156 0.138279 -0.398767 0.519758 -0.383962 0.253438 -0.371892 -0.161629 0.0381661 -0.198923 0.0239867 0.0823643 0.0916462 -0.246904 0.389386 -0.00193793 -0.0381634 0.178426 0.276696 0.0225813 0.309002 0.440059 -0.109068 0.0674187 0.283329 -0.0687549 0.0513684 0.238918 0.458623 -0.116232 -0.094908 0.369687 0.394155 0.256214 0.182394 0.485632 -0.122962 0.28116 -0.334085 0.449177 -0.0455703 -0.0719762 -0.332531 -0.491929 0.156911 0.152181 0.481416 -0.377622 0.0924277 -0.333609 -0.497417 0.300809 -0.419278 0.471408 -0.138236 0.23064 -0.280415 0.111885 -0.372579 0.174122 0.189668 0.351089 0.164019 0.239373 -0.215674 0.30131 -0.0227617 0.479388 -0.131152 -0.123849 0.340552 0.0828018 0.1863 0.187887 -0.163381 -0.332235 0.129357 -0.473552 -0.399573 0.411477 0.162495 0.225515 0.00888561 0.356652 -0.307536 0.42382 0.361185 0.0528798 0.380527 0.189448 -0.332589 0.0798508 0.0575882 -0.348006 -0.299278 0.448133 -0.182195 0.0466972 0.477103 -0.165787 0.263115 -0.492889 -0.405057 0.149017 -0.290444 -0.116862 -0.102442 -0.230204 -0.304209 0.0968952 0.296523 -0.140883 -0.184146 0.0234895 0.3952 -0.347003 -0.24273 -0.202349 0.132727 -0.29184 0.0923054 -0.348334 0.238177 0.533928 0.193768 -0.032697 -0.0668193 0.433499 0.284424 0.225211 0.492386 0.112641 0.417637 0.257309 0.405375 -0.0291718 -0.243021 0.405826 -0.338197 0.337637 0.245498 -0.297633 0.194974 0.475579 0.172475 -0.352599 -0.06844 -0.0971829 0.267965 0.141398 0.279678 -0.443528 0.409536 -0.298276 -0.175057 -0.0603897 0.17183 -0.297685 -0.431591 -0.424422 0.280748 -0.204546 0.416427 0.307901 0.422403 -0.23379 -0.325605 -0.285956 -0.122247 0.459562 -0.314056 0.556294 0.210991 0.0640719 -0.00833153 0.417839 0.0859346 0.153865 -0.042882 0.347268 -0.03501 0.174091 0.464787 0.491527 -0.252388 0.295689 -0.213373 0.048943 0.0975268 -0.312186 0.218918 0.11807 0.10636 -0.247441 0.095077 -0.17367 0.328506 -0.30368 -0.258162 -0.164189 0.103321 -0.158982 -0.243159 -0.470134 0.250614 0.000736262 0.103489 0.0354259 0.445974 -0.35935 0.0112724 -0.251629 0.233785 0.230197 0.295963 0.114748 -0.461073 0.216495 -0.231315 -0.099672 -0.205199 0.365962 -0.490343 0.25763 -0.401744 -0.312934 0.45732 -0.0822902 0.0290071 -0.141688 0.197572 -0.2407 0.0289132 0.1733 0.307815 0.299651 -0.453547 -0.201074 -0.354803 -0.386768 -0.0242094 -0.192592 -0.321498 0.0589767 0.126355 0.126508 0.312648 -0.120613 -0.521683 -0.585435 -0.0146328 0.090312 0.176753 0.244311 -0.407253 0.475769 -0.315983 -0.41429 -0.268999 -0.0243061 -0.571022 -0.129853 -0.534999 0.0693856 -0.275745 0.0966928 -0.238307 0.180032 0.477723 -0.328641 0.0298754 0.0155191 -0.297275 -0.341226 0.267404 -0.241899 -0.432087 0.426372 0.186061 0.327125 -0.175065 0.319684 0.53984 -0.297594 -0.511279 -0.363234 -0.572802 -0.0529656 0.168054 0.182285 0.142858 -0.367082 -0.252525 -0.262082 -0.15605 0.372003 0.348245 0.348934 0.210808 -0.418303 0.439134 -0.118535 0.138115 0.312914 0.0827637 0.426442 -0.303842 -0.134322 0.373246 0.400776 -0.454042 -0.467029 0.404336 -0.291172 0.100381 -0.461784 -0.0423704 -0.524593 -0.361502 -0.341047 0.468715 -0.416398 0.493289 0.257073 0.247292 -0.214774 0.115263 0.382762 0.0333748 -0.488939 -0.0862781 -0.311336 -0.315506 0.364797 -0.0952626 0.463049 -0.281976 0.216515 -0.129993 0.00868556 -0.5458 -0.388255 -0.0766773 -0.142488 0.341036 -0.285439 0.283451 0.160116 0.0617551 -0.195165 0.414268 0.485394 0.427365 0.0914182 0.304102 -0.443831 0.123718 -0.00840603 -0.331699 -0.109661 0.0937994 0.216519 0.502905 -0.139987 -0.144238 0.134797 -0.501416 -0.430223 0.156476 -0.453602 0.122614 -0.307133 -0.133431 0.126042 0.444512 -0.341901 0.328456 0.426251 -0.315261 -0.154812 -0.0345743 0.224235 -0.159873 -0.387169 -0.429572 0.0488509 -0.180865 0.434349 0.0246425 -0.329819 -0.422005 0.184492 -0.41688 -0.37124 -0.393267 -0.414955 -0.280588 -0.15657 -0.293917 0.383068 0.446227 0.421964 -0.137351 -0.358467 0.105396 0.474152 0.172699 0.376273 0.278847 -0.184011 -0.326289 -0.340112 -0.323559 0.403484 -0.180672 -0.3531 0.180705 -0.512973 -0.613364 -0.238381 -0.103161 -0.540492 -0.00396358 -0.033326 -0.0451016 -0.417819 -0.0423215 0.134734 0.353937 0.329618 0.0159399 -0.155015 0.379012 -0.0305857 0.445194 0.0356103 0.0178657 -0.126305 0.419479 0.446505 -0.0720302 -0.0895917 -0.354202 0.510221 0.454373 0.209814 -0.130845 -0.296763 -0.416495 -0.241784 -0.391551 -0.0463318 -0.0309206 0.111643 0.108212 0.182091 0.212719 0.482363 -0.110796 0.208435 0.217462 0.461224 0.00925168 0.362819 -0.0746915 -0.433927 -0.127746 0.187313 0.378724 -0.203406 -0.0818454 -0.34576 -0.108634 -0.428291 0.181466 -0.614041 0.334203 -0.283184 -0.322392 0.1724 -0.318078 0.105897 0.481076 -0.079889 0.435605 -0.235381 0.0309208 0.0716143 0.163741 0.371662 0.207226 0.132619 -0.233493 -0.182943 0.0995855 -0.342316 0.241524 0.246618 0.0388722 0.328328 0.485375 0.195398 0.16474 0.402691 0.0708747 0.368917 0.51784 -0.100908 -0.0805044 0.507381 -0.195568 -0.376378 0.461602 0.0136091 0.289951 -0.478628 0.0654942 -0.211847 -0.348411 0.455851 -0.0859817 -0.0751517 0.459609 -0.477518 -0.201311 0.0489602 0.17722 -0.00614603 -0.363156 0.140488 0.198161 -0.183883 0.307185 0.0218836 0.548773 -0.0385412 0.0922586 0.548853 -0.00464261 0.227889 -0.183789 -0.0509595 -0.125947 0.32115 -0.0118842 -0.0159535 -0.49961 0.281034 -0.315515 -0.0747854 0.387814 0.351356 0.235235 0.506418 0.351681 0.246156 -0.0539227 0.517116 0.0768316 0.257911 0.440085 -0.401841 -0.307317 0.23405 0.092173 -0.358889 0.439383 0.149834 -0.0699461 -0.492402 0.334112 -0.495999 0.365374 0.401035 0.461823 -0.198206 0.0220553 -0.0825984 0.293329 0.296849 0.460694 0.365309 -0.380181 -0.19684 0.395556 -0.232018 0.140443 0.408738 0.40027 0.184586 -0.0488471 -0.0153235 -0.0373132 0.323128 -0.123486 -0.276781 0.307675 0.214685 0.104923 0.00915684 -0.0486895 0.264368 -0.161402 -0.296343 -0.379727 0.0718253 0.410245 -0.0784125 0.501181 -0.0932037 0.516003 0.338433 -0.439177 0.0511794 -0.257539 -0.325542 -0.220329 0.420123 -0.335455 -0.121598 -0.436714 -0.0740585 -0.144637 -0.0590902 0.16697 0.0371347 0.0704429 0.428021 -0.388027 -0.447917 0.450236 -0.263201 0.0782647 -0.46176 -0.0510117 0.113706 -0.377184 0.0162275 -0.166353 -0.304572 -0.244094 0.204866 0.46556 0.427065 -0.253725 0.460446 0.13219 -0.32459 0.0770154 0.36811 0.211439 -0.45257 0.250935 0.131943 -0.0291752 0.176258 -0.408664 -0.429078 -0.186488 -0.417936 0.182913 -0.0271157 0.389676 -0.412748 -0.273736 0.386367 -0.147221 -0.440269 0.225817 -0.0715487 -0.16142 7.33804e-005 0.390949 0.312841 0.14266 0.192599 -0.172101 0.0144251 0.472404 -0.242896 -0.415536 0.00339043 -0.0206795 0.179054 0.338321 -0.177146 0.385672 0.473052 -0.0876034 -0.0964232 0.261437 -0.0842158 0.102588 -0.407926 -0.0245895 -0.234831 -0.412535 0.00116376 0.23326 0.258238 0.0774422 0.214346 -0.388618 -0.351281 0.339677 -0.133327 -0.00585627 -0.423152 0.244155 -0.415796 0.259188 0.494535 -0.499945 0.40994 0.242058 -0.450835 0.253899 
-0.348384 0.252464 -0.420835 0.177602 0.247734 0.13802 -0.425199 0.212302 0.143147 0.259758 0.365566 -0.36813 -0.270239 0.302682 -0.182227 -0.4241 -0.127796 0.319697 0.323328 -0.290582 -0.445158 -0.0772576 -0.140095 0.165822 -0.323481 0.016831 0.405637 0.429533 0.0287027 -0.00657675 -0.0123447 0.313898 -0.0138694 -0.216412 0.147859 -0.307075 -0.0563896 -0.319049 0.10511 0.135034 0.0186286 0.328919 0.389738 0.10839 0.072547 -0.196971 0.256918 -0.0907429 -0.422363 0.174574 -0.381936 -0.0440957 0.317682 0.456328 -0.191366 -0.375851 -0.471618 0.358699 -0.0467313 0.27015 0.446997 -0.253099 0.219204 -0.398154 -0.162571 0.21884 -0.256571 0.0535645 0.498845 -0.322104 0.472644 0.285352 0.272052 0.310908 -0.238841 -0.441135 -0.304102 0.0119984 0.00285662 0.0518259 -0.332663 0.426717 0.0463119 -0.190786 0.230216 -0.371364 -0.422529 0.41333 0.0149266 -0.0843342 0.497745 0.193347 0.405195 -0.451608 0.378808 -0.0126438 -0.132068 -0.18839 -0.191735 0.100396 -0.472155 0.378408 -0.0081772 -0.191992 -0.427206 0.304893 0.238343 -0.24196 0.39233 -0.276504 -0.117531 -0.244438 0.135487 0.35757 0.0234745 0.2766 -0.478668 0.00257278 -0.277913 0.100124 -0.342348 0.337565 0.286868 -0.367755 -0.239136 -0.0840979 -0.0669623 0.031202 0.328576 -0.183726 -0.317751 -0.0446191 -0.176034 -0.395075 0.421309 -0.322876 0.288365 -0.483021 -0.41748 -0.170125 0.153523 0.289575 0.142113 -0.442577 -0.373653 0.272469 -0.139109 -0.371522 -0.445137 -0.347838 0.195225 0.0389605 -0.3596 0.317991 -0.493643 0.347677 -0.385785 0.0358171 -0.0640556 0.296874 0.289504 -0.387211 -0.291898 0.137637 0.432381 -0.212111 -0.0191326 -0.332209 0.456969 0.167989 0.419743 0.147144 0.0984472 -0.439919 0.389173 -0.273779 0.39823 -0.514659 -0.221897 0.458047 -0.0710116 0.295155 0.485717 0.507139 -0.0616149 -0.325054 0.280336 0.335549 0.121569 -0.498691 -0.292571 -0.0589206 0.411377 -0.396316 0.0588538 0.317893 0.425077 -0.219703 0.215837 0.284141 -0.280692 0.44597 0.20634 0.281938 -0.54231 -0.0903932 -0.301816 0.436135 -0.456006 0.557656 0.190317 -0.0713416 0.495211 0.00470779 0.0786516 -0.0212607 -0.336738 -0.0614789 -0.485603 -0.0454108 -0.228064 -0.452349 0.000655452 -0.0499713 -0.106486 0.082216 -0.23825 0.438555 0.0302269 -0.0576176 0.0319778 -0.226232 0.381239 -0.346592 -0.54968 0.301455 -0.154723 0.517604 -0.173916 -0.21107 -0.349197 -0.531415 0.281368 0.14214 -0.574396 0.337433 -0.527128 -0.27248 0.467739 0.171246 0.192262 -0.278344 -0.0704327 -0.247781 -0.0963721 0.0139523 -0.373499 -0.582832 -0.211124 -0.207688 -0.246383 0.310398 -0.0747373 0.380294 -0.381779 0.289027 -0.272235 -0.496793 -0.395755 0.188956 -0.259257 -0.348431 -0.344853 0.0712521 0.0782484 -0.222335 -0.392826 -0.166787 0.144983 -0.102765 -0.148121 0.00179426 8.37252e-006 0.441782 0.246822 0.317115 0.0124211 -0.181406 0.417283 0.253172 0.171674 0.0860681 0.299382 -0.458884 -0.193466 -0.15892 -0.401556 0.055871 -0.327741 0.0862634 -0.254863 -0.157546 -0.0861718 0.458147 0.0204397 -0.300269 -0.203257 -0.188598 -0.287161 0.00725146 0.034693 -0.226844 0.298837 0.291487 -0.249855 0.486257 -0.132196 0.276871 0.468431 -0.28192 0.455543 0.0953647 -0.267374 -0.155556 -0.0961477 0.0987328 -0.425543 -0.0451815 0.327992 0.334924 0.25868 0.190981 0.0473845 0.331974 0.167406 -0.227035 -0.0384295 -0.20937 0.326309 0.375908 0.153425 0.211443 -0.299119 -0.345273 0.248964 0.149516 0.082574 0.0926084 0.500996 -0.206547 0.502739 0.524616 0.273695 -0.000937591 -0.066908 0.504069 0.242971 0.341125 0.194461 0.0487232 0.18297 -0.348667 -0.156627 -0.498009 -0.490785 -0.097413 -0.136221 -0.169795 -0.164178 -0.0561568 0.457085 -0.0620108 0.638684 0.383169 -0.152165 0.0989106 0.176992 0.334154 0.406612 -0.206772 -0.0189488 0.204123 -0.312437 0.408496 0.0552952 0.13206 -0.354025 0.290955 -0.21604 -0.366416 0.244259 0.194344 -0.0883053 -0.252828 -0.291187 -0.395312 0.441766 0.175353 0.552084 0.524848 -0.298217 -0.220333 0.646803 -0.228569 0.531519 0.710583 0.594955 0.424569 0.069868 0.265295 -0.152892 -0.27082 0.220775 -0.417035 0.533353 -0.010321 -0.393135 -0.406912 0.151343 -0.195414 -0.10799 -0.105457 0.439804 -0.400792 -0.158868 0.0798941 -0.27534 0.146315 0.323435 0.32878 0.0984697 0.258976 -0.172338 -0.333874 0.106485 0.283097 0.186829 -0.329482 0.425722 -0.448726 -0.0579408 -0.222313 0.301691 0.293457 0.356735 0.39068 0.471477 -0.354195 -0.0824763 0.219599 0.102138 0.176198 -0.00978459 0.226875 -0.4645 0.00652312 -0.0603402 0.220993 -0.247338 -0.0251517 0.414155 -0.389633 0.259685 -0.112426 0.158696 0.14769 -0.367549 -0.445898 -0.425802 0.500461 -0.151399 0.470285 0.0115209 0.407369 -0.308786 -0.10274 0.0535447 0.217359 -0.36136 -0.269117 -0.437916 -0.414423 -0.268067 -0.410585 -0.390996 0.381139 -0.116993 -0.0355994 -0.466147 0.143637 -0.251493 -0.230095 -0.641894 -0.298903 -0.14631 -0.219194 0.493965 0.405149 0.372958 0.263956 0.0725474 -0.370234 -0.00336516 0.114773 -0.189128 0.335732 0.267939 0.431227 0.093112 -0.0608622 0.344065 0.181993 -0.293208 0.408133 0.37131 -0.450747 0.190329 0.0447517 -0.524901 -0.528192 0.0576914 0.398642 -0.181061 0.255989 -0.320677 0.196007 0.0247928 -0.32652 -0.506152 -0.319752 -0.472257 0.330919 0.206015 -0.331266 -0.224497 0.219715 0.376629 -0.438078 -0.0111113 -0.074462 0.336735 0.0191752 0.440358 -0.183904 0.0424111 0.0832566 -0.133807 -0.193675 0.0999249 0.127529 -0.271751 0.545941 -0.364874 -0.219152 -0.0644551 -0.168516 -0.459988 0.161351 -0.258324 -0.146147 -0.246269 -0.144402 0.192512 -0.359365 0.313366 -0.434486 0.377114 0.234182 0.348268 0.141415 -0.151726 -0.15897 -0.0868811 -0.492565 0.209003 0.359539 -0.374642 0.183684 -0.0242292 -0.245827 -0.0787801 -0.326736 -0.438959 -0.00336795 0.268232 0.13817 0.350127 0.343438 -0.390957 -0.471803 -0.16871 -0.367808 -0.0246546 -0.374869 0.355102 0.387129 -0.0692072 -0.187519 -0.509753 -0.433412 0.311274 0.474022 -0.102473 -0.0431863 0.233716 0.0748929 0.237445 -0.0318342 -0.0472625 0.42385 -0.272186 0.21856 -0.194942 0.104681 -0.213614 0.265343 -0.421018 0.151723 0.139446 -0.170658 0.0153711 -0.460894 -0.373457 0.262918 -0.347824 -0.263132 -0.0704197 0.160692 -0.00193446 -0.232169 0.305802 0.235 0.0907014 0.332706 0.519382 -0.00900188 0.380768 0.462192 0.386251 -0.191647 0.200345 0.277696 -0.309958 0.31686 0.222129 -0.399167 0.341578 -0.485037 0.248185 0.448116 -0.46195 -0.0721552 0.285791 0.0491084 -0.141445 -0.154331 0.0793766 0.215464 -0.144133 -0.330775 0.0496093 -0.476051 0.0595144 0.144344 0.512086 0.140521 -0.415273 0.275859 0.0794668 -0.432816 0.368632 -0.0840327 -0.245384 0.316309 0.347953 -0.238096 -0.46122 0.0192315 -0.0691559 0.0416554 -0.156606 -0.216185 -0.302 0.519086 0.0459966 0.445285 -0.298363 0.0401826 -0.269456 0.520547 -0.303042 0.103348 0.457341 -0.435474 -0.328802 -0.22219 -0.220366 0.0751859 -0.291071 0.349483 -0.0181433 0.385464 -0.1149 -0.0835019 -0.256976 0.437083 0.417781 -0.215175 0.375795 -0.23659 -0.343428 -0.122348 -0.484834 -0.172348 -0.418253 -0.325397 -0.0364845 -0.447604 -0.309623 -0.33623 0.392035 -0.200259 0.0725656 -0.40346 0.180098 0.436664 0.499451 -0.327479 -0.026017 0.390439 0.330714 -0.0146031 -0.0386238 -0.388766 0.209648 0.303668 -0.0442957 -0.450982 -0.463272 -0.045491 -0.393139 -0.204677 -0.050781 -0.207702 0.0455309 0.383091 0.20567 -0.0284823 0.153214 -0.150548 -0.304651 -0.133819 -0.0225855 -0.122886 -0.358394 -0.0455794 -0.295556 0.367183 0.206473 0.00840783 -0.263817 0.372236 -0.155752 0.265602 0.0372359 0.446377 0.027149 0.390695 -0.131442 -0.446999 0.125803 -0.0708605 0.00157305 -0.501794 -0.227261 0.477801 0.0403595 0.305098 0.37579 0.0310478 -0.392514 0.315607 0.212577 -0.0367901 
0.370357 -0.27987 -0.187765 0.0467391 -0.494354 0.0570849 -0.128254 -0.239463 0.376675 0.338679 -0.451628 -0.448668 0.387715 -0.382096 0.384522 0.187185 -0.450255 0.417325 -0.352535 -0.137654 -0.209952 -0.0757622 0.367061 0.210898 -0.462828 0.361263 -0.149037 -0.115833 -0.387112 0.435484 -0.0393841 -0.150594 -0.0383773 0.275016 -0.0728139 0.0646899 0.247251 -0.245251 -0.0125313 -0.315755 -0.142994 -0.364743 -0.357655 0.475823 0.335539 0.377299 -0.246177 -0.467514 -0.238282 0.106278 0.368726 0.0359046 0.147328 -0.45349 0.433561 0.164602 0.357082 0.436766 0.28457 -0.193853 -0.431228 0.227907 0.114205 0.244806 -0.16908 -0.469363 0.228678 0.459658 -0.269005 0.223165 0.435734 0.300773 -0.216443 -0.385222 0.200949 -0.064548 0.355735 -0.484234 0.0176599 0.0418414 -0.0794608 -0.359336 -0.488403 0.0798212 0.48941 0.427305 0.0858724 0.276816 -0.0471819 0.427164 0.240062 0.362556 0.0453344 0.252079 0.251445 -0.344815 -0.249215 -0.426442 -0.0519219 0.056149 -0.0118946 -0.188953 -0.440892 -0.0243237 -0.52741 -0.248369 0.337289 0.223087 0.147211 0.383109 0.475915 0.11333 0.0921201 0.0623033 0.193367 -0.108326 0.370609 0.139807 -0.163303 0.278287 0.460732 0.304312 0.252036 0.479555 -0.110629 -0.244312 0.534914 0.494633 0.128428 0.343289 -0.00615201 -0.245311 0.0468262 0.31949 0.0846855 -0.15619 -0.10578 0.491636 -0.0814687 -0.254753 0.452757 -0.205069 -0.200464 -0.0846414 -0.0049059 0.434834 0.435154 -0.326582 -0.445733 -0.125467 -0.313626 -0.259399 -0.254126 0.102259 -0.287691 0.180743 -0.350684 -0.154861 -0.233468 0.301548 -0.295511 -0.0953963 -0.500695 0.0638719 0.399262 0.272196 0.161015 -0.257195 -0.431944 0.240043 -0.254325 0.269913 0.226951 0.137673 0.109605 0.445234 0.0810491 -0.072629 0.204021 -0.0983073 -0.0710884 0.306906 0.0166225 -0.0920155 -0.0549753 0.354021 0.400524 -0.442656 -0.560299 0.0969288 -0.592553 -0.391698 -0.264869 -0.300281 0.417201 -0.453912 0.360622 0.398993 0.22052 0.316483 -0.249306 -0.458983 -0.391064 -0.0874111 -0.336267 0.357438 -0.116338 0.44655 0.444329 -0.112988 0.617458 0.480608 0.430087 0.203089 -0.0800784 0.313212 0.0741494 -0.504528 0.151847 -0.16706 -0.246881 0.288457 -0.435856 -0.15503 0.327081 -0.408856 0.348773 -0.0343385 -0.489152 0.212854 0.281023 0.0927717 0.413182 -0.0691217 0.145092 0.03117 0.139593 0.190809 0.359158 0.479218 0.469207 -0.214633 0.495036 -0.287135 -0.00484421 -0.412214 0.225396 -0.514766 0.240395 -0.393075 -0.023463 -0.0651095 -0.162999 0.428136 -0.383471 0.232841 0.443788 -0.156625 0.0983616 -0.41577 -0.323684 -0.281949 -0.284534 0.319494 0.162133 0.13355 -0.0896414 -0.0111055 0.571038 -0.143656 0.0516136 0.490899 -0.318731 0.324956 0.26302 -0.416471 0.321636 -0.246565 0.406822 -0.0429715 -0.19946 -0.309382 -0.350773 -0.16028 0.0419409 0.292439 -0.284311 0.0742343 -0.191922 -0.33901 0.191478 -0.267772 -0.347148 0.217491 -0.0116984 -0.273009 -0.0860258 0.369084 0.251304 -0.0517951 0.0766312 0.401043 0.240676 -0.199061 -0.0266408 -0.329005 0.365067 -0.400103 -0.0759318 0.434614 0.256004 -0.0605722 -0.381254 -0.178204 0.15707 0.164851 0.0444178 0.0180017 0.0245594 0.072666 -0.481938 0.0351504 0.0141845 0.23498 -0.298317 0.079943 -0.281295 0.594538 -0.0552029 0.487345 0.407309 -0.347353 -0.125441 -0.306861 0.00283419 0.373708 0.273406 0.178092 0.238073 -0.440679 0.333908 -0.128722 0.133731 -0.375285 0.328273 -0.0529266 0.0369978 -0.548183 -0.519041 -0.523088 -0.232563 -0.365647 0.177065 -0.116537 0.47893 0.302188 0.0166561 0.521057 -0.12455 -0.238557 0.197457 0.0601641 -0.0725423 0.0379483 0.360499 -0.486773 -0.0656695 -0.155019 -0.209351 0.0395164 0.172956 -0.475625 0.192899 -0.286263 -0.359162 -0.177987 -0.588863 -0.315783 -0.246758 -0.326744 -0.0160036 0.344154 0.161942 -0.174715 -0.0704771 -0.0843062 0.272022 -0.446479 -0.415855 -0.208332 -0.0761582 0.28235 0.475738 -0.0130471 -0.0441515 -0.279035 0.428427 -0.168141 -0.143353 -0.509588 0.304192 -0.513904 -0.589881 -0.0708191 -0.18649 -0.199304 -0.479802 -0.100205 0.0576007 -0.0155984 0.237546 0.255128 0.047185 0.106836 -0.468047 -0.22997 0.0651212 -0.238768 0.0783374 0.254567 0.48291 -0.410825 0.0866906 0.0717659 0.41415 -0.108027 -0.487324 -0.377958 0.136069 0.196973 0.129895 -0.37169 -0.227755 0.0611533 0.263468 -0.332771 0.116749 -0.346428 -0.219321 -0.225306 -0.279671 0.124206 0.246516 0.227651 0.156708 0.341188 0.240154 0.0260927 -0.20455 -0.300083 -0.175019 -0.00904438 0.21533 0.0540187 0.182664 0.0285628 0.439714 0.426032 -0.465297 0.104567 0.0837083 -0.0592056 -0.487444 0.221463 0.380395 0.246199 -0.0655561 -0.282866 -0.517738 -0.216026 -0.416431 -0.061617 -0.235256 0.428167 0.317725 -0.408569 -0.246513 -0.166525 -0.47737 0.227084 -0.381885 0.222517 -0.308959 -0.0167418 -0.317173 -0.170683 0.296182 -0.123537 -0.137714 -0.450019 -0.0384636 -0.249586 -0.250702 -0.135436 0.38545 0.151016 -0.00909703 0.178602 0.189614 0.230183 0.257232 0.190376 0.359834 0.49158 0.119686 0.026479 -0.400582 0.428607 0.419621 0.190178 0.426931 0.185406 -0.0881909 -0.29299 0.435039 0.451083 -0.27957 0.0388022 0.0320108 0.0216938 0.328077 -0.0154998 -0.42909 0.328963 -0.397196 -0.10053 0.152053 -0.0530064 0.286343 0.443518 -0.090566 -0.333986 -0.0874203 0.209319 -0.199472 0.258191 0.482239 0.42053 0.519708 0.395407 0.0257939 0.344871 0.010544 0.00930177 0.245238 0.408047 -0.0500544 0.219275 -0.355074 -0.496883 0.283154 -0.293 0.356443 -0.354955 0.304921 0.260626 -0.298942 -0.101798 -0.433905 -0.385884 0.298395 0.411242 -0.0435123 -0.0270662 0.352321 0.0233573 0.227278 0.0247647 0.237493 -0.0797542 0.0413496 -0.0668046 0.0432916 -0.428488 0.00240381 0.25838 -0.391093 0.0838534 0.013853 0.292764 -0.185495 -0.239286 -0.0446591 0.273776 0.117116 0.208562 0.242361 0.460074 -0.244381 0.137849 0.230935 -0.448793 0.162835 -0.265581 0.101102 0.325028 0.457011 0.0866545 0.109271 -0.0427961 -0.0262334 -0.299711 0.315303 -0.437522 0.170444 0.39183 -0.298622 -0.095451 0.178258 0.460509 0.595426 -0.0545253 0.529684 0.112691 0.119962 0.0276425 0.235736 -0.235348 0.3051 0.0167024 0.150382 -0.490066 -0.0833504 -0.364722 0.393744 -0.113603 -0.107447 -0.0166532 0.162039 0.407951 -0.421122 -0.358382 -0.0981884 -0.299187 0.457225 0.32062 0.235128 0.217241 0.431908 0.521511 -0.434512 -0.468586 -0.296338 -0.492755 -0.464171 0.29397 0.489909 -0.0295534 0.32418 0.225123 -0.208249 -0.215007 0.0681461 0.293982 -0.260085 0.391782 0.120311 0.399295 -0.122173 -0.180691 -0.0110279 -0.148865 -0.113102 -0.368814 -0.28205 -0.0427475 0.180889 -0.10711 -0.378152 -0.0262103 0.00360263 -0.187277 -0.396542 0.316523 0.2129 0.0303784 -0.336491 0.0828295 -0.448783 0.371136 0.420183 -0.399754 0.102826 0.0898043 0.0958442 -0.435235 0.522268 -0.340076 -0.408383 0.0889964 0.409525 0.503557 -0.0686514 0.352519 0.111097 0.0842057 -0.361974 0.0720869 0.27351 0.221274 -0.008652 -0.478729 -0.132723 0.150795 0.4395 0.329101 0.416243 -0.42177 -0.108443 -0.0361153 0.417586 0.478174 0.371711 -0.032188 0.544309 0.624783 -0.135025 0.533062 -0.0552568 0.170888 -0.166853 0.331938 -0.0471563 -0.46746 -0.290287 -0.385877 0.297411 0.390378 0.181631 -0.401822 0.473144 0.487548 -0.0111811 -0.0171672 -0.31218 -0.349074 -0.0444231 0.239571 -0.414377 0.458173 0.184455 -0.291242 0.375552 0.099753 0.331885 0.0293665 -0.116117 -0.258596 -0.231796 0.0413225 -0.492753 0.176614 0.284186 -0.0897311 -0.310541 0.345515 -0.00233465 -0.122883 0.1404 -0.0833308 -0.423368 0.0695332 0.357309 0.152725 0.453443 0.0601693 -0.449319 0.162565 -0.424353 -0.352345 -0.11997 0.323303 -0.188998 -0.209091 0.239626 -0.0633218 0.472799 0.106999 0.479912 -0.0678877 0.0949889 -0.177358 0.165761 -0.467772 
-0.177023 -0.452788 -0.216056 -0.250847 -0.384152 -0.13686 -0.323756 -0.219291 -0.289636 0.0685293 0.423338 -0.0404828 0.384793 0.000965374 -0.00459107 0.426115 -0.436522 0.348628 0.443754 0.179525 0.290887 0.353908 0.414487 -0.339045 -0.394742 0.316279 0.26577 -0.473327 -0.155049 -0.2004 0.0700858 -0.233085 -0.083363 -0.0486982 0.282115 -0.173422 -0.441199 -0.160733 0.354692 -0.115184 0.128716 0.21031 0.0800494 -0.0554135 -0.0523421 -0.415705 -0.0498461 -0.0942063 -0.264315 0.0766453 0.291307 0.24492 0.161122 -0.128193 0.490417 0.497528 0.0431379 -0.261986 0.0600148 0.168454 0.236353 -0.497499 -0.154297 0.24309 -0.270458 -0.111256 0.149276 -0.0486673 -0.0130626 -0.386656 0.0385574 -0.0855252 0.0353593 0.144715 -0.354865 0.423042 0.455225 0.113446 -0.256778 -0.149302 -0.422481 -0.397016 0.324152 0.0142674 0.140339 0.400754 -0.480549 -0.484554 -0.186433 -0.466993 -0.370107 -0.185894 -0.328728 0.0184793 -0.448312 0.138326 0.121544 0.196076 0.289269 -0.213035 0.202162 0.510218 -0.00410993 0.349085 0.298544 -0.447399 0.335061 -0.0221286 0.375123 0.42306 0.111208 0.294488 0.235221 -0.262659 0.362867 0.275829 0.113894 -0.462404 -0.0267725 -0.413508 -0.369723 -0.0616104 -0.294185 -0.245386 -0.26976 -0.0662456 -0.453711 0.20993 0.368846 -0.480692 0.326812 0.173582 -0.349683 0.378525 -0.135942 0.390057 0.390085 0.105933 0.252383 0.484558 0.335383 -0.115406 0.20076 0.0534864 -0.489005 0.320034 0.145904 0.126383 0.17088 0.469567 -0.215773 0.356581 -0.251854 -0.0184154 -0.457033 0.0888364 -0.270011 0.139108 -0.356291 0.378538 -0.060698 0.0246371 0.202726 0.48545 -0.0344413 -0.420116 -0.301965 0.067217 -0.490295 -0.415311 0.461075 0.104276 0.113518 0.389797 -0.432284 -0.264506 -0.119439 0.240158 0.276012 -0.198866 0.294949 -0.408121 -0.0719423 -0.0110403 0.110606 0.120057 0.143984 0.398717 0.4036 0.03307 0.541621 0.235358 0.427418 0.302317 0.194385 -0.00993271 -0.121662 0.0898742 0.0452626 0.226847 0.469742 -0.281598 -0.15447 0.216664 -0.408462 0.275902 0.02121 -0.42653 0.326645 0.310402 0.318927 0.135529 0.218015 0.515907 -0.428769 0.182822 -0.243919 -0.203588 -0.263059 0.347352 0.116897 0.0489501 0.250649 -0.392724 0.159435 0.395765 0.00456842 -0.372556 0.350268 0.288682 -0.323688 0.321202 -0.349476 0.199714 0.15987 -0.431538 0.00547746 -0.20723 0.317295 0.0593649 -0.0724231 -0.341579 -0.321201 -0.227664 0.0516153 -0.397549 0.427116 -0.401008 -0.337545 -0.0326906 0.334557 0.033889 -0.00866584 0.155681 0.195196 -0.141693 0.371251 0.202192 -0.112471 0.28955 -0.600097 0.155268 -0.0126064 0.0666216 -0.352396 0.346236 -0.433583 0.254172 -0.514522 0.0717278 -0.277552 -0.307077 -0.350756 -0.107884 -0.347693 0.142003 -0.224186 0.321666 0.194021 -0.00954486 -0.250955 0.100759 0.363486 0.396028 -0.423434 -0.364877 -0.270293 -0.29902 -0.190597 -0.193308 0.421644 -0.171029 -0.253777 -0.446665 -0.287127 0.119558 -0.504251 -0.681644 0.169938 -0.607599 -0.593688 -0.686384 -0.240844 -0.347196 0.15992 -0.411452 -0.148201 -0.234747 0.0733231 0.326579 -0.341965 -0.0517732 -0.219638 -0.372814 -0.106888 0.307188 0.377412 0.385269 0.0465861 0.180172 0.157321 0.257518 -0.518561 0.0252624 -0.00743278 0.0414265 -0.0718087 -0.164455 0.23254 -0.429876 0.0254467 -0.146339 -0.290347 0.377477 0.174968 0.340747 -0.169077 0.290443 0.0317437 0.164927 -0.0877296 -0.00434119 0.202083 -0.13419 0.084027 0.0521279 0.178993 0.224984 0.126967 -0.306016 -0.0126467 -0.00985361 0.0111335 -0.445514 -0.512772 0.366812 0.171732 -0.538876 0.151711 -0.115604 0.00409526 -0.0134756 -0.488255 0.315491 -0.273281 -0.150291 0.492847 -0.231638 0.0622914 0.214202 0.457099 -0.387668 0.565857 0.278815 0.691761 -0.0700874 0.574706 -0.287891 -0.293215 0.0456536 0.286077 0.301808 0.457459 -0.386958 0.189247 -0.504339 0.132454 -0.0778008 0.0808717 -0.0133704 0.401283 -0.289483 0.283319 0.197505 -0.320954 -0.303141 0.363408 -0.456985 0.3648 0.295835 0.136281 0.614355 0.231127 0.335121 0.16558 0.26196 -0.30984 0.421502 0.547026 -0.00725396 0.49362 -0.0507154 -0.0175774 0.372734 0.317141 -0.0218841 0.273477 -0.372379 -0.227049 0.230608 0.409787 0.0321817 -0.280055 0.390255 -0.486682 0.342508 0.0255294 -0.329663 -0.0823416 -0.159727 0.702927 0.605044 0.352616 0.0510594 -0.469942 0.448182 0.00324384 0.106445 0.381499 -0.0808242 -0.389196 0.235753 0.0665831 -0.325456 0.329139 0.38695 -0.376512 0.10046 0.27633 -0.192521 -0.139506 -0.205744 0.156202 -0.150818 -0.0109544 0.187949 -0.0436396 0.648645 -0.136459 -0.225503 0.038627 -0.298556 0.0623393 0.0763979 0.324926 0.339957 0.183365 -0.181933 -0.00863307 -0.0992363 0.0887295 0.00913484 0.481851 -0.446963 -0.352013 0.0567353 -0.285516 0.407259 -0.184899 0.171612 -0.213336 0.26181 0.267186 -0.246043 -0.454315 0.194521 0.349213 -0.249278 -0.0971052 -0.409554 -0.231551 -0.156493 0.508745 0.14737 -0.0137978 -0.344677 0.0318101 0.172721 -0.0449612 -0.340305 -0.241128 0.165169 -0.218413 -0.409758 -0.138223 0.0870305 0.31576 0.334141 0.443385 -0.480108 0.354125 -0.463366 0.0445495 0.046782 -0.500037 0.227755 -0.236842 0.201869 0.366768 -0.0636277 0.312428 -0.0246104 0.422202 0.380232 -0.259365 0.457847 -0.24658 0.0780768 0.226197 0.172292 0.126171 0.0363176 0.268578 0.0264429 -0.170878 0.369175 -0.0906142 -0.407755 -0.321633 0.402136 -0.0945522 -0.0658732 -0.289501 0.209583 0.285189 -0.155284 -0.348294 0.384464 -0.202355 -0.0113393 0.0516243 0.0185152 -0.0362886 0.452066 0.231289 -0.208852 0.398212 0.126497 0.240931 -0.396862 0.187613 0.338275 -0.0964004 0.467199 -0.387997 -0.328537 0.503641 0.137436 0.313861 -0.623067 -0.201931 -0.515602 0.247634 0.441376 -0.205237 -0.423941 0.317613 -0.322704 -0.357739 0.539626 -0.122355 0.399694 0.512327 0.130146 0.493742 0.275588 0.235665 -0.0666406 0.262838 -0.124638 0.126687 -0.0788772 -0.0324634 0.0597043 -0.227558 -0.0356377 -0.121589 0.405132 0.1389 -0.513823 -0.0880305 -0.269741 -0.405601 0.224879 0.22862 -0.0192313 0.26858 -0.306205 0.154691 -0.364684 -0.1379 -0.109527 -0.226663 0.379259 -0.326955 0.292591 0.338096 -0.320125 0.152063 -0.0597567 0.37155 0.070083 -0.343067 -0.472967 0.0871986 -0.546797 -0.13787 -0.330832 -0.486818 -0.385117 -0.0249976 -0.209327 -0.275095 -0.224405 -0.350755 0.203945 -0.134204 -0.201784 0.398922 0.0773344 -0.28896 0.126626 -0.278785 -0.019651 -0.396542 0.419218 -0.236278 0.312257 -0.455501 -0.15925 -0.441758 0.115198 -0.254624 -0.531945 0.336388 -0.406911 -0.18028 -0.0153418 -0.389783 -0.620821 0.156382 -0.139371 -0.535471 0.458831 -0.171201 -0.381226 0.271371 0.317409 0.166891 0.462819 -0.461506 0.0526597 -0.201682 -0.347713 0.453615 -0.449514 0.477286 0.345658 0.294732 -0.332579 -0.252346 0.00142408 -0.00894497 0.160808 -0.183648 -0.300376 -0.426972 -0.377832 -0.510405 0.306575 0.396189 0.158077 -0.304757 0.423303 0.156388 -0.0434083 0.304648 -0.315607 0.353517 -0.0451826 -0.31045 0.26925 0.478828 -0.396537 -0.32739 -0.467166 0.0927989 -0.432124 -0.321207 -0.374961 0.305263 -0.28765 0.336101 0.461351 -0.0570134 0.0126659 -0.0926575 -0.465663 -0.38632 0.279483 0.455111 0.490577 -0.225531 -0.400053 0.486344 -0.34798 0.21301 0.155629 -0.455687 -0.0513474 -0.136341 -0.283563 -0.0803553 -0.132112 0.347112 0.473228 0.258043 0.166047 -0.397398 0.265248 -0.423405 0.0908044 -0.00781663 0.351851 0.0975236 0.409525 -0.322247 -0.13041 -0.356236 0.408721 0.195608 0.0365737 -0.152998 -0.0449727 -0.13683 0.377071 -0.184713 -0.0234535 0.318201 -0.443266 0.331507 0.19357 -0.425169 0.446464 -0.475168 0.481641 -0.294283 0.223513 0.178531 0.0420746 -0.0763953 0.216163 -0.216369 0.361059 0.399379 -0.285783 -0.0906166 0.323507 0.47983 0.207809 -0.237236 0.373257 -0.26513 -0.486389 
